digraph Tree {
node [shape=box, style="rounded", color="black", fontname=helvetica] ;
edge [fontname=helvetica] ;
0 [label="Duration <= 34.5\nmse = 1.7\nsamples = 3898\nvalue = 3.7"] ;
1 [label="year <= 2011.5\nmse = 1.1\nsamples = 1157\nvalue = 3.0"] ;
0 -> 1 [labeldistance=2.5, labelangle=45, headlabel="True"] ;
2 [label="Duration <= 15.5\nmse = 1.0\nsamples = 103\nvalue = 2.1"] ;
1 -> 2 ;
3 [label="hour <= 5.0\nmse = 0.4\nsamples = 26\nvalue = 1.5"] ;
2 -> 3 ;
4 [label="day <= 21.5\nmse = 0.1\nsamples = 6\nvalue = 2.1"] ;
3 -> 4 ;
5 [label="day <= 14.0\nmse = 0.2\nsamples = 3\nvalue = 2.3"] ;
4 -> 5 ;
6 [label="mse = 0.0\nsamples = 2\nvalue = 2.0"] ;
5 -> 6 ;
7 [label="mse = 0.0\nsamples = 1\nvalue = 3.0"] ;
5 -> 7 ;
8 [label="mse = 0.0\nsamples = 3\nvalue = 2.0"] ;
4 -> 8 ;
9 [label="day <= 23.5\nmse = 0.4\nsamples = 20\nvalue = 1.3"] ;
3 -> 9 ;
10 [label="hour <= 15.5\nmse = 0.2\nsamples = 14\nvalue = 1.2"] ;
9 -> 10 ;
11 [label="mse = 0.0\nsamples = 9\nvalue = 1.0"] ;
10 -> 11 ;
12 [label="day <= 12.5\nmse = 0.6\nsamples = 5\nvalue = 1.6"] ;
10 -> 12 ;
13 [label="day <= 9.5\nmse = 0.2\nsamples = 2\nvalue = 2.5"] ;
12 -> 13 ;
14 [label="mse = 0.0\nsamples = 1\nvalue = 2.0"] ;
13 -> 14 ;
15 [label="mse = 0.0\nsamples = 1\nvalue = 3.0"] ;
13 -> 15 ;
16 [label="mse = 0.0\nsamples = 3\nvalue = 1.0"] ;
12 -> 16 ;
17 [label="day <= 25.5\nmse = 0.5\nsamples = 6\nvalue = 1.8"] ;
9 -> 17 ;
18 [label="mse = 0.0\nsamples = 1\nvalue = 3.0"] ;
17 -> 18 ;
19 [label="hour <= 9.5\nmse = 0.2\nsamples = 5\nvalue = 1.6"] ;
17 -> 19 ;
20 [label="day <= 29.0\nmse = 0.2\nsamples = 3\nvalue = 1.3"] ;
19 -> 20 ;
21 [label="mse = 0.0\nsamples = 2\nvalue = 1.0"] ;
20 -> 21 ;
22 [label="mse = 0.0\nsamples = 1\nvalue = 2.0"] ;
20 -> 22 ;
23 [label="mse = 0.0\nsamples = 2\nvalue = 2.0"] ;
19 -> 23 ;
24 [label="month <= 9.5\nmse = 1.0\nsamples = 77\nvalue = 2.3"] ;
2 -> 24 ;
25 [label="Duration <= 33.5\nmse = 0.7\nsamples = 59\nvalue = 2.1"] ;
24 -> 25 ;
26 [label="hour <= 1.5\nmse = 0.6\nsamples = 58\nvalue = 2.0"] ;
25 -> 26 ;
27 [label="hour <= 0.5\nmse = 0.2\nsamples = 7\nvalue = 2.6"] ;
26 -> 27 ;
28 [label="Duration <= 22.5\nmse = 0.2\nsamples = 4\nvalue = 2.2"] ;
27 -> 28 ;
29 [label="mse = 0.0\nsamples = 1\nvalue = 3.0"] ;
28 -> 29 ;
30 [label="mse = 0.0\nsamples = 3\nvalue = 2.0"] ;
28 -> 30 ;
31 [label="mse = 0.0\nsamples = 3\nvalue = 3.0"] ;
27 -> 31 ;
32 [label="month <= 8.5\nmse = 0.6\nsamples = 51\nvalue = 2.0"] ;
26 -> 32 ;
33 [label="month <= 7.5\nmse = 0.5\nsamples = 45\nvalue = 1.9"] ;
32 -> 33 ;
34 [label="Duration <= 19.5\nmse = 0.5\nsamples = 36\nvalue = 2.0"] ;
33 -> 34 ;
35 [label="day <= 24.5\nmse = 0.2\nsamples = 12\nvalue = 1.7"] ;
34 -> 35 ;
36 [label="month <= 3.0\nmse = 0.2\nsamples = 10\nvalue = 1.8"] ;
35 -> 36 ;
37 [label="mse = 0.0\nsamples = 1\nvalue = 1.0"] ;
36 -> 37 ;
38 [label="day <= 6.0\nmse = 0.1\nsamples = 9\nvalue = 1.9"] ;
36 -> 38 ;
39 [label="hour <= 9.5\nmse = 0.2\nsamples = 3\nvalue = 1.7"] ;
38 -> 39 ;
40 [label="mse = 0.0\nsamples = 1\nvalue = 1.0"] ;
39 -> 40 ;
41 [label="mse = 0.0\nsamples = 2\nvalue = 2.0"] ;
39 -> 41 ;
42 [label="mse = 0.0\nsamples = 6\nvalue = 2.0"] ;
38 -> 42 ;
43 [label="mse = 0.0\nsamples = 2\nvalue = 1.0"] ;
35 -> 43 ;
44 [label="hour <= 2.5\nmse = 0.5\nsamples = 24\nvalue = 2.2"] ;
34 -> 44 ;
45 [label="day <= 15.0\nmse = 0.2\nsamples = 2\nvalue = 1.3"] ;
44 -> 45 ;
46 [label="mse = 0.0\nsamples = 1\nvalue = 2.0"] ;
45 -> 46 ;
47 [label="mse = 0.0\nsamples = 1\nvalue = 1.0"] ;
45 -> 47 ;
48 [label="hour <= 8.5\nmse = 0.4\nsamples = 22\nvalue = 2.3"] ;
44 -> 48 ;
49 [label="mse = 0.0\nsamples = 3\nvalue = 3.0"] ;
48 -> 49 ;
50 [label="day <= 7.5\nmse = 0.4\nsamples = 19\nvalue = 2.2"] ;
48 -> 50 ;
51 [label="mse = 0.0\nsamples = 2\nvalue = 3.0"] ;
50 -> 51 ;
52 [label="day <= 11.5\nmse = 0.4\nsamples = 17\nvalue = 2.1"] ;
50 -> 52 ;
53 [label="Duration <= 23.5\nmse = 0.5\nsamples = 6\nvalue = 1.9"] ;
52 -> 53 ;
54 [label="mse = 0.0\nsamples = 1\nvalue = 3.0"] ;
53 -> 54 ;
55 [label="Duration <= 25.5\nmse = 0.2\nsamples = 5\nvalue = 1.6"] ;
53 -> 55 ;
56 [label="day <= 9.0\nmse = 0.2\nsamples = 3\nvalue = 1.2"] ;
55 -> 56 ;
57 [label="mse = 0.0\nsamples = 1\nvalue = 2.0"] ;
56 -> 57 ;
58 [label="mse = 0.0\nsamples = 2\nvalue = 1.0"] ;
56 -> 58 ;
59 [label="mse = 0.0\nsamples = 2\nvalue = 2.0"] ;
55 -> 59 ;
60 [label="day <= 12.5\nmse = 0.2\nsamples = 11\nvalue = 2.3"] ;
52 -> 60 ;
61 [label="mse = 0.0\nsamples = 1\nvalue = 3.0"] ;
60 -> 61 ;
62 [label="hour <= 10.5\nmse = 0.2\nsamples = 10\nvalue = 2.3"] ;
60 -> 62 ;
63 [label="day <= 19.0\nmse = 0.2\nsamples = 3\nvalue = 2.5"] ;
62 -> 63 ;
64 [label="mse = 0.0\nsamples = 2\nvalue = 2.0"] ;
63 -> 64 ;
65 [label="mse = 0.0\nsamples = 1\nvalue = 3.0"] ;
63 -> 65 ;
66 [label="day <= 16.5\nmse = 0.1\nsamples = 7\nvalue = 2.1"] ;
62 -> 66 ;
67 [label="hour <= 19.0\nmse = 0.2\nsamples = 2\nvalue = 2.5"] ;
66 -> 67 ;
68 [label="mse = 0.0\nsamples = 1\nvalue = 3.0"] ;
67 -> 68 ;
69 [label="mse = 0.0\nsamples = 1\nvalue = 2.0"] ;
67 -> 69 ;
70 [label="mse = 0.0\nsamples = 5\nvalue = 2.0"] ;
66 -> 70 ;
71 [label="Duration <= 32.5\nmse = 0.4\nsamples = 9\nvalue = 1.4"] ;
33 -> 71 ;
72 [label="day <= 10.0\nmse = 0.2\nsamples = 8\nvalue = 1.3"] ;
71 -> 72 ;
73 [label="mse = 0.0\nsamples = 2\nvalue = 1.0"] ;
72 -> 73 ;
74 [label="day <= 12.5\nmse = 0.2\nsamples = 6\nvalue = 1.5"] ;
72 -> 74 ;
75 [label="mse = 0.0\nsamples = 2\nvalue = 2.0"] ;
74 -> 75 ;
76 [label="hour <= 20.0\nmse = 0.2\nsamples = 4\nvalue = 1.2"] ;
74 -> 76 ;
77 [label="mse = 0.0\nsamples = 3\nvalue = 1.0"] ;
76 -> 77 ;
78 [label="mse = 0.0\nsamples = 1\nvalue = 2.0"] ;
76 -> 78 ;
79 [label="mse = 0.0\nsamples = 1\nvalue = 3.0"] ;
71 -> 79 ;
80 [label="hour <= 14.5\nmse = 1.0\nsamples = 6\nvalue = 2.6"] ;
32 -> 80 ;
81 [label="day <= 24.5\nmse = 0.1\nsamples = 4\nvalue = 2.2"] ;
80 -> 81 ;
82 [label="mse = 0.0\nsamples = 3\nvalue = 2.0"] ;
81 -> 82 ;
83 [label="mse = 0.0\nsamples = 1\nvalue = 3.0"] ;
81 -> 83 ;
84 [label="Duration <= 21.5\nmse = 1.0\nsamples = 2\nvalue = 4.0"] ;
80 -> 84 ;
85 [label="mse = 0.0\nsamples = 1\nvalue = 5.0"] ;
84 -> 85 ;
86 [label="mse = 0.0\nsamples = 1\nvalue = 3.0"] ;
84 -> 86 ;
87 [label="mse = 0.0\nsamples = 1\nvalue = 4.0"] ;
25 -> 87 ;
88 [label="day <= 9.5\nmse = 1.1\nsamples = 18\nvalue = 3.1"] ;
24 -> 88 ;
89 [label="mse = 0.0\nsamples = 1\nvalue = 1.0"] ;
88 -> 89 ;
90 [label="day <= 15.0\nmse = 0.9\nsamples = 17\nvalue = 3.2"] ;
88 -> 90 ;
91 [label="Duration <= 26.5\nmse = 0.7\nsamples = 7\nvalue = 3.9"] ;
90 -> 91 ;
92 [label="hour <= 9.0\nmse = 0.2\nsamples = 5\nvalue = 3.4"] ;
91 -> 92 ;
93 [label="mse = 0.0\nsamples = 1\nvalue = 4.0"] ;
92 -> 93 ;
94 [label="hour <= 20.0\nmse = 0.2\nsamples = 4\nvalue = 3.2"] ;
92 -> 94 ;
95 [label="mse = 0.0\nsamples = 3\nvalue = 3.0"] ;
94 -> 95 ;
96 [label="mse = 0.0\nsamples = 1\nvalue = 4.0"] ;
94 -> 96 ;
97 [label="mse = 0.0\nsamples = 2\nvalue = 5.0"] ;
91 -> 97 ;
98 [label="day <= 27.0\nmse = 0.5\nsamples = 10\nvalue = 2.8"] ;
90 -> 98 ;
99 [label="day <= 23.0\nmse = 0.2\nsamples = 6\nvalue = 2.4"] ;
98 -> 99 ;
100 [label="month <= 11.5\nmse = 0.2\nsamples = 4\nvalue = 2.7"] ;
99 -> 100 ;
101 [label="mse = 0.0\nsamples = 3\nvalue = 3.0"] ;
100 -> 101 ;
102 [label="mse = 0.0\nsamples = 1\nvalue = 2.0"] ;
100 -> 102 ;
103 [label="mse = 0.0\nsamples = 2\nvalue = 2.0"] ;
99 -> 103 ;
104 [label="day <= 28.5\nmse = 0.2\nsamples = 4\nvalue = 3.4"] ;
98 -> 104 ;
105 [label="mse = 0.0\nsamples = 1\nvalue = 4.0"] ;
104 -> 105 ;
106 [label="mse = 0.0\nsamples = 3\nvalue = 3.0"] ;
104 -> 106 ;
107 [label="hour <= 6.5\nmse = 1.0\nsamples = 1054\nvalue = 3.1"] ;
1 -> 107 ;
108 [label="hour <= 3.5\nmse = 1.6\nsamples = 178\nvalue = 3.7"] ;
107 -> 108 ;
109 [label="Duration <= 18.5\nmse = 1.0\nsamples = 111\nvalue = 3.2"] ;
108 -> 109 ;
110 [label="year <= 2014.5\nmse = 0.2\nsamples = 4\nvalue = 1.5"] ;
109 -> 110 ;
111 [label="mse = 0.0\nsamples = 2\nvalue = 1.0"] ;
110 -> 111 ;
112 [label="mse = 0.0\nsamples = 2\nvalue = 2.0"] ;
110 -> 112 ;
113 [label="Duration <= 30.5\nmse = 0.9\nsamples = 107\nvalue = 3.3"] ;
109 -> 113 ;
114 [label="month <= 6.5\nmse = 0.7\nsamples = 70\nvalue = 3.1"] ;
113 -> 114 ;
115 [label="day <= 25.5\nmse = 0.8\nsamples = 31\nvalue = 3.4"] ;
114 -> 115 ;
116 [label="day <= 15.5\nmse = 0.8\nsamples = 25\nvalue = 3.6"] ;
115 -> 116 ;
117 [label="day <= 4.5\nmse = 0.2\nsamples = 14\nvalue = 3.2"] ;
116 -> 117 ;
118 [label="month <= 1.5\nmse = 0.2\nsamples = 4\nvalue = 3.8"] ;
117 -> 118 ;
119 [label="mse = 0.0\nsamples = 1\nvalue = 3.0"] ;
118 -> 119 ;
120 [label="mse = 0.0\nsamples = 3\nvalue = 4.0"] ;
118 -> 120 ;
121 [label="day <= 5.5\nmse = 0.1\nsamples = 10\nvalue = 3.1"] ;
117 -> 121 ;
122 [label="year <= 2014.5\nmse = 0.2\nsamples = 3\nvalue = 3.2"] ;
121 -> 122 ;
123 [label="mse = 0.0\nsamples = 2\nvalue = 3.0"] ;
122 -> 123 ;
124 [label="mse = 0.0\nsamples = 1\nvalue = 4.0"] ;
122 -> 124 ;
125 [label="mse = 0.0\nsamples = 7\nvalue = 3.0"] ;
121 -> 125 ;
126 [label="day <= 17.5\nmse = 1.0\nsamples = 11\nvalue = 4.1"] ;
116 -> 126 ;
127 [label="mse = 0.0\nsamples = 2\nvalue = 5.0"] ;
126 -> 127 ;
128 [label="hour <= 1.5\nmse = 1.0\nsamples = 9\nvalue = 3.8"] ;
126 -> 128 ;
129 [label="month <= 5.0\nmse = 0.4\nsamples = 4\nvalue = 3.0"] ;
128 -> 129 ;
130 [label="month <= 3.5\nmse = 0.2\nsamples = 3\nvalue = 2.8"] ;
129 -> 130 ;
131 [label="mse = 0.0\nsamples = 2\nvalue = 3.0"] ;
130 -> 131 ;
132 [label="mse = 0.0\nsamples = 1\nvalue = 2.0"] ;
130 -> 132 ;
133 [label="mse = 0.0\nsamples = 1\nvalue = 4.0"] ;
129 -> 133 ;
134 [label="year <= 2016.0\nmse = 0.8\nsamples = 5\nvalue = 4.3"] ;
128 -> 134 ;
135 [label="hour <= 2.5\nmse = 0.2\nsamples = 4\nvalue = 4.8"] ;
134 -> 135 ;
136 [label="mse = 0.0\nsamples = 1\nvalue = 4.0"] ;
135 -> 136 ;
137 [label="mse = 0.0\nsamples = 3\nvalue = 5.0"] ;
135 -> 137 ;
138 [label="mse = 0.0\nsamples = 1\nvalue = 3.0"] ;
134 -> 138 ;
139 [label="month <= 4.0\nmse = 0.2\nsamples = 6\nvalue = 2.7"] ;
115 -> 139 ;
140 [label="day <= 26.5\nmse = 0.1\nsamples = 5\nvalue = 2.9"] ;
139 -> 140 ;
141 [label="hour <= 2.0\nmse = 0.2\nsamples = 2\nvalue = 2.7"] ;
140 -> 141 ;
142 [label="mse = 0.0\nsamples = 1\nvalue = 2.0"] ;
141 -> 142 ;
143 [label="mse = 0.0\nsamples = 1\nvalue = 3.0"] ;
141 -> 143 ;
144 [label="mse = 0.0\nsamples = 3\nvalue = 3.0"] ;
140 -> 144 ;
145 [label="mse = 0.0\nsamples = 1\nvalue = 2.0"] ;
139 -> 145 ;
146 [label="day <= 6.0\nmse = 0.6\nsamples = 39\nvalue = 2.8"] ;
114 -> 146 ;
147 [label="day <= 2.0\nmse = 0.5\nsamples = 6\nvalue = 2.2"] ;
146 -> 147 ;
148 [label="mse = 0.0\nsamples = 1\nvalue = 1.0"] ;
147 -> 148 ;
149 [label="day <= 4.0\nmse = 0.4\nsamples = 5\nvalue = 2.4"] ;
147 -> 149 ;
150 [label="hour <= 2.0\nmse = 0.5\nsamples = 4\nvalue = 2.6"] ;
149 -> 150 ;
151 [label="month <= 9.5\nmse = 0.6\nsamples = 3\nvalue = 2.8"] ;
150 -> 151 ;
152 [label="mse = 0.0\nsamples = 1\nvalue = 2.0"] ;
151 -> 152 ;
153 [label="year <= 2015.0\nmse = 0.2\nsamples = 2\nvalue = 3.3"] ;
151 -> 153 ;
154 [label="mse = 0.0\nsamples = 1\nvalue = 4.0"] ;
153 -> 154 ;
155 [label="mse = 0.0\nsamples = 1\nvalue = 3.0"] ;
153 -> 155 ;
156 [label="mse = 0.0\nsamples = 1\nvalue = 2.0"] ;
150 -> 156 ;
157 [label="mse = 0.0\nsamples = 1\nvalue = 2.0"] ;
149 -> 157 ;
158 [label="day <= 17.5\nmse = 0.5\nsamples = 33\nvalue = 3.0"] ;
146 -> 158 ;
159 [label="day <= 15.5\nmse = 0.7\nsamples = 14\nvalue = 3.4"] ;
158 -> 159 ;
160 [label="Duration <= 23.5\nmse = 0.5\nsamples = 11\nvalue = 3.2"] ;
159 -> 160 ;
161 [label="day <= 10.0\nmse = 0.2\nsamples = 2\nvalue = 4.5"] ;
160 -> 161 ;
162 [label="mse = 0.0\nsamples = 1\nvalue = 5.0"] ;
161 -> 162 ;
163 [label="mse = 0.0\nsamples = 1\nvalue = 4.0"] ;
161 -> 163 ;
164 [label="hour <= 2.5\nmse = 0.3\nsamples = 9\nvalue = 3.0"] ;
160 -> 164 ;
165 [label="day <= 9.5\nmse = 0.2\nsamples = 6\nvalue = 2.8"] ;
164 -> 165 ;
166 [label="mse = 0.0\nsamples = 4\nvalue = 3.0"] ;
165 -> 166 ;
167 [label="mse = 0.0\nsamples = 2\nvalue = 2.0"] ;
165 -> 167 ;
168 [label="Duration <= 27.0\nmse = 0.2\nsamples = 3\nvalue = 3.5"] ;
164 -> 168 ;
169 [label="mse = 0.0\nsamples = 2\nvalue = 3.0"] ;
168 -> 169 ;
170 [label="mse = 0.0\nsamples = 1\nvalue = 4.0"] ;
168 -> 170 ;
171 [label="Duration <= 28.5\nmse = 0.2\nsamples = 3\nvalue = 4.3"] ;
159 -> 171 ;
172 [label="mse = 0.0\nsamples = 2\nvalue = 4.0"] ;
171 -> 172 ;
173 [label="mse = 0.0\nsamples = 1\nvalue = 5.0"] ;
171 -> 173 ;
174 [label="hour <= 2.5\nmse = 0.2\nsamples = 19\nvalue = 2.8"] ;
158 -> 174 ;
175 [label="month <= 7.5\nmse = 0.1\nsamples = 16\nvalue = 2.8"] ;
174 -> 175 ;
176 [label="Duration <= 26.0\nmse = 0.2\nsamples = 6\nvalue = 2.7"] ;
175 -> 176 ;
177 [label="day <= 24.5\nmse = 0.2\nsamples = 3\nvalue = 2.4"] ;
176 -> 177 ;
178 [label="mse = 0.0\nsamples = 1\nvalue = 3.0"] ;
177 -> 178 ;
179 [label="mse = 0.0\nsamples = 2\nvalue = 2.0"] ;
177 -> 179 ;
180 [label="mse = 0.0\nsamples = 3\nvalue = 3.0"] ;
176 -> 180 ;
181 [label="day <= 21.0\nmse = 0.1\nsamples = 10\nvalue = 2.9"] ;
175 -> 181 ;
182 [label="year <= 2012.5\nmse = 0.2\nsamples = 2\nvalue = 2.5"] ;
181 -> 182 ;
183 [label="mse = 0.0\nsamples = 1\nvalue = 3.0"] ;
182 -> 183 ;
184 [label="mse = 0.0\nsamples = 1\nvalue = 2.0"] ;
182 -> 184 ;
185 [label="mse = 0.0\nsamples = 8\nvalue = 3.0"] ;
181 -> 185 ;
186 [label="Duration <= 29.5\nmse = 0.2\nsamples = 3\nvalue = 2.2"] ;
174 -> 186 ;
187 [label="mse = 0.0\nsamples = 2\nvalue = 2.0"] ;
186 -> 187 ;
188 [label="mse = 0.0\nsamples = 1\nvalue = 3.0"] ;
186 -> 188 ;
189 [label="year <= 2014.5\nmse = 0.9\nsamples = 37\nvalue = 3.6"] ;
113 -> 189 ;
190 [label="hour <= 0.5\nmse = 0.9\nsamples = 17\nvalue = 3.3"] ;
189 -> 190 ;
191 [label="year <= 2013.5\nmse = 0.9\nsamples = 8\nvalue = 2.9"] ;
190 -> 191 ;
192 [label="month <= 4.0\nmse = 0.7\nsamples = 6\nvalue = 3.3"] ;
191 -> 192 ;
193 [label="Duration <= 33.0\nmse = 1.7\nsamples = 2\nvalue = 3.8"] ;
192 -> 193 ;
194 [label="mse = 0.0\nsamples = 1\nvalue = 3.0"] ;
193 -> 194 ;
195 [label="mse = 0.0\nsamples = 1\nvalue = 6.0"] ;
193 -> 195 ;
196 [label="mse = 0.0\nsamples = 4\nvalue = 3.0"] ;
192 -> 196 ;
197 [label="mse = 0.0\nsamples = 2\nvalue = 2.0"] ;
191 -> 197 ;
198 [label="month <= 4.5\nmse = 0.5\nsamples = 9\nvalue = 3.8"] ;
190 -> 198 ;
199 [label="mse = 0.0\nsamples = 1\nvalue = 5.0"] ;
198 -> 199 ;
200 [label="month <= 7.5\nmse = 0.4\nsamples = 8\nvalue = 3.7"] ;
198 -> 200 ;
201 [label="mse = 0.0\nsamples = 3\nvalue = 3.0"] ;
200 -> 201 ;
202 [label="day <= 9.5\nmse = 0.2\nsamples = 5\nvalue = 4.0"] ;
200 -> 202 ;
203 [label="mse = 0.0\nsamples = 1\nvalue = 5.0"] ;
202 -> 203 ;
204 [label="hour <= 1.5\nmse = 0.1\nsamples = 4\nvalue = 3.9"] ;
202 -> 204 ;
205 [label="day <= 13.5\nmse = 0.2\nsamples = 2\nvalue = 3.7"] ;
204 -> 205 ;
206 [label="mse = 0.0\nsamples = 1\nvalue = 4.0"] ;
205 -> 206 ;
207 [label="mse = 0.0\nsamples = 1\nvalue = 3.0"] ;
205 -> 207 ;
208 [label="mse = 0.0\nsamples = 2\nvalue = 4.0"] ;
204 -> 208 ;
209 [label="day <= 24.5\nmse = 0.7\nsamples = 20\nvalue = 4.0"] ;
189 -> 209 ;
210 [label="month <= 2.5\nmse = 0.6\nsamples = 18\nvalue = 4.2"] ;
209 -> 210 ;
211 [label="Duration <= 31.5\nmse = 0.2\nsamples = 2\nvalue = 5.5"] ;
210 -> 211 ;
212 [label="mse = 0.0\nsamples = 1\nvalue = 6.0"] ;
211 -> 212 ;
213 [label="mse = 0.0\nsamples = 1\nvalue = 5.0"] ;
211 -> 213 ;
214 [label="day <= 23.0\nmse = 0.4\nsamples = 16\nvalue = 4.1"] ;
210 -> 214 ;
215 [label="hour <= 0.5\nmse = 0.3\nsamples = 15\nvalue = 4.0"] ;
214 -> 215 ;
216 [label="mse = 0.0\nsamples = 3\nvalue = 3.0"] ;
215 -> 216 ;
217 [label="day <= 8.5\nmse = 0.1\nsamples = 12\nvalue = 4.2"] ;
215 -> 217 ;
218 [label="month <= 8.0\nmse = 0.2\nsamples = 5\nvalue = 4.6"] ;
217 -> 218 ;
219 [label="mse = 0.0\nsamples = 2\nvalue = 4.0"] ;
218 -> 219 ;
220 [label="mse = 0.0\nsamples = 3\nvalue = 5.0"] ;
218 -> 220 ;
221 [label="mse = 0.0\nsamples = 7\nvalue = 4.0"] ;
217 -> 221 ;
222 [label="mse = 0.0\nsamples = 1\nvalue = 6.0"] ;
214 -> 222 ;
223 [label="mse = 0.0\nsamples = 2\nvalue = 3.0"] ;
209 -> 223 ;
224 [label="Duration <= 31.5\nmse = 1.4\nsamples = 67\nvalue = 4.5"] ;
108 -> 224 ;
225 [label="month <= 5.5\nmse = 1.1\nsamples = 46\nvalue = 4.2"] ;
224 -> 225 ;
226 [label="year <= 2013.5\nmse = 1.2\nsamples = 21\nvalue = 4.5"] ;
225 -> 226 ;
227 [label="mse = 0.0\nsamples = 1\nvalue = 6.0"] ;
226 -> 227 ;
228 [label="day <= 14.5\nmse = 1.1\nsamples = 20\nvalue = 4.3"] ;
226 -> 228 ;
229 [label="day <= 13.0\nmse = 0.7\nsamples = 8\nvalue = 4.9"] ;
228 -> 229 ;
230 [label="Duration <= 24.5\nmse = 0.4\nsamples = 7\nvalue = 4.5"] ;
229 -> 230 ;
231 [label="mse = 0.0\nsamples = 2\nvalue = 5.0"] ;
230 -> 231 ;
232 [label="month <= 4.5\nmse = 0.3\nsamples = 5\nvalue = 4.0"] ;
230 -> 232 ;
233 [label="day <= 2.0\nmse = 0.2\nsamples = 4\nvalue = 3.8"] ;
232 -> 233 ;
234 [label="mse = 0.0\nsamples = 1\nvalue = 3.0"] ;
233 -> 234 ;
235 [label="mse = 0.0\nsamples = 3\nvalue = 4.0"] ;
233 -> 235 ;
236 [label="mse = 0.0\nsamples = 1\nvalue = 5.0"] ;
232 -> 236 ;
237 [label="mse = 0.0\nsamples = 1\nvalue = 6.0"] ;
229 -> 237 ;
238 [label="day <= 27.5\nmse = 0.9\nsamples = 12\nvalue = 3.8"] ;
228 -> 238 ;
239 [label="hour <= 4.5\nmse = 0.7\nsamples = 10\nvalue = 4.0"] ;
238 -> 239 ;
240 [label="mse = 0.0\nsamples = 2\nvalue = 5.0"] ;
239 -> 240 ;
241 [label="Duration <= 19.0\nmse = 0.5\nsamples = 8\nvalue = 3.8"] ;
239 -> 241 ;
242 [label="mse = 0.0\nsamples = 1\nvalue = 5.0"] ;
241 -> 242 ;
243 [label="year <= 2017.0\nmse = 0.4\nsamples = 7\nvalue = 3.6"] ;
241 -> 243 ;
244 [label="day <= 24.5\nmse = 0.4\nsamples = 5\nvalue = 3.9"] ;
243 -> 244 ;
245 [label="Duration <= 26.5\nmse = 0.2\nsamples = 3\nvalue = 4.2"] ;
244 -> 245 ;
246 [label="mse = 0.0\nsamples = 1\nvalue = 5.0"] ;
245 -> 246 ;
247 [label="mse = 0.0\nsamples = 2\nvalue = 4.0"] ;
245 -> 247 ;
248 [label="mse = 0.0\nsamples = 2\nvalue = 3.0"] ;
244 -> 248 ;
249 [label="Duration <= 23.5\nmse = 0.2\nsamples = 2\nvalue = 3.2"] ;
243 -> 249 ;
250 [label="mse = 0.0\nsamples = 1\nvalue = 4.0"] ;
249 -> 250 ;
251 [label="mse = 0.0\nsamples = 1\nvalue = 3.0"] ;
249 -> 251 ;
252 [label="month <= 3.0\nmse = 0.2\nsamples = 2\nvalue = 2.5"] ;
238 -> 252 ;
253 [label="mse = 0.0\nsamples = 1\nvalue = 3.0"] ;
252 -> 253 ;
254 [label="mse = 0.0\nsamples = 1\nvalue = 2.0"] ;
252 -> 254 ;
255 [label="year <= 2016.5\nmse = 0.8\nsamples = 25\nvalue = 3.9"] ;
225 -> 255 ;
256 [label="year <= 2013.5\nmse = 0.6\nsamples = 22\nvalue = 3.8"] ;
255 -> 256 ;
257 [label="mse = 0.0\nsamples = 3\nvalue = 3.0"] ;
256 -> 257 ;
258 [label="month <= 7.5\nmse = 0.6\nsamples = 19\nvalue = 3.9"] ;
256 -> 258 ;
259 [label="month <= 6.5\nmse = 0.2\nsamples = 6\nvalue = 3.4"] ;
258 -> 259 ;
260 [label="day <= 5.5\nmse = 0.1\nsamples = 3\nvalue = 3.8"] ;
259 -> 260 ;
261 [label="mse = 0.0\nsamples = 1\nvalue = 3.0"] ;
260 -> 261 ;
262 [label="mse = 0.0\nsamples = 2\nvalue = 4.0"] ;
260 -> 262 ;
263 [label="mse = 0.0\nsamples = 3\nvalue = 3.0"] ;
259 -> 263 ;
264 [label="year <= 2015.5\nmse = 0.5\nsamples = 13\nvalue = 4.2"] ;
258 -> 264 ;
265 [label="hour <= 5.0\nmse = 0.5\nsamples = 8\nvalue = 4.5"] ;
264 -> 265 ;
266 [label="mse = 0.0\nsamples = 4\nvalue = 4.0"] ;
265 -> 266 ;
267 [label="Duration <= 27.5\nmse = 0.6\nsamples = 4\nvalue = 5.0"] ;
265 -> 267 ;
268 [label="month <= 11.5\nmse = 0.2\nsamples = 3\nvalue = 4.6"] ;
267 -> 268 ;
269 [label="mse = 0.0\nsamples = 2\nvalue = 5.0"] ;
268 -> 269 ;
270 [label="mse = 0.0\nsamples = 1\nvalue = 4.0"] ;
268 -> 270 ;
271 [label="mse = 0.0\nsamples = 1\nvalue = 6.0"] ;
267 -> 271 ;
272 [label="day <= 4.0\nmse = 0.2\nsamples = 5\nvalue = 3.7"] ;
264 -> 272 ;
273 [label="mse = 0.0\nsamples = 1\nvalue = 3.0"] ;
272 -> 273 ;
274 [label="month <= 8.5\nmse = 0.1\nsamples = 4\nvalue = 3.8"] ;
272 -> 274 ;
275 [label="mse = 0.0\nsamples = 1\nvalue = 3.0"] ;
274 -> 275 ;
276 [label="mse = 0.0\nsamples = 3\nvalue = 4.0"] ;
274 -> 276 ;
277 [label="day <= 12.5\nmse = 1.5\nsamples = 3\nvalue = 5.0"] ;
255 -> 277 ;
278 [label="hour <= 5.0\nmse = 0.2\nsamples = 2\nvalue = 4.3"] ;
277 -> 278 ;
279 [label="mse = 0.0\nsamples = 1\nvalue = 4.0"] ;
278 -> 279 ;
280 [label="mse = 0.0\nsamples = 1\nvalue = 5.0"] ;
278 -> 280 ;
281 [label="mse = 0.0\nsamples = 1\nvalue = 7.0"] ;
277 -> 281 ;
282 [label="month <= 11.5\nmse = 1.1\nsamples = 21\nvalue = 5.3"] ;
224 -> 282 ;
283 [label="month <= 9.5\nmse = 0.8\nsamples = 20\nvalue = 5.1"] ;
282 -> 283 ;
284 [label="hour <= 5.5\nmse = 0.8\nsamples = 18\nvalue = 5.2"] ;
283 -> 284 ;
285 [label="month <= 8.5\nmse = 0.4\nsamples = 13\nvalue = 5.4"] ;
284 -> 285 ;
286 [label="hour <= 4.5\nmse = 0.4\nsamples = 11\nvalue = 5.2"] ;
285 -> 286 ;
287 [label="year <= 2016.5\nmse = 0.1\nsamples = 5\nvalue = 4.9"] ;
286 -> 287 ;
288 [label="mse = 0.0\nsamples = 4\nvalue = 5.0"] ;
287 -> 288 ;
289 [label="mse = 0.0\nsamples = 1\nvalue = 4.0"] ;
287 -> 289 ;
290 [label="Duration <= 32.5\nmse = 0.5\nsamples = 6\nvalue = 5.6"] ;
286 -> 290 ;
291 [label="month <= 3.0\nmse = 0.2\nsamples = 2\nvalue = 6.2"] ;
290 -> 291 ;
292 [label="mse = 0.0\nsamples = 1\nvalue = 7.0"] ;
291 -> 292 ;
293 [label="mse = 0.0\nsamples = 1\nvalue = 6.0"] ;
291 -> 293 ;
294 [label="mse = 0.0\nsamples = 4\nvalue = 5.0"] ;
290 -> 294 ;
295 [label="mse = 0.0\nsamples = 2\nvalue = 6.0"] ;
285 -> 295 ;
296 [label="day <= 7.0\nmse = 1.2\nsamples = 5\nvalue = 4.5"] ;
284 -> 296 ;
297 [label="mse = 0.0\nsamples = 1\nvalue = 2.0"] ;
296 -> 297 ;
298 [label="mse = 0.0\nsamples = 4\nvalue = 5.0"] ;
296 -> 298 ;
299 [label="mse = 0.0\nsamples = 2\nvalue = 4.0"] ;
283 -> 299 ;
300 [label="mse = 0.0\nsamples = 1\nvalue = 7.0"] ;
282 -> 300 ;
301 [label="Duration <= 24.5\nmse = 0.8\nsamples = 876\nvalue = 3.0"] ;
107 -> 301 ;
302 [label="year <= 2015.5\nmse = 0.7\nsamples = 284\nvalue = 2.7"] ;
301 -> 302 ;
303 [label="hour <= 15.5\nmse = 0.7\nsamples = 189\nvalue = 2.6"] ;
302 -> 303 ;
304 [label="day <= 27.5\nmse = 0.6\nsamples = 110\nvalue = 2.4"] ;
303 -> 304 ;
305 [label="day <= 24.5\nmse = 0.6\nsamples = 99\nvalue = 2.4"] ;
304 -> 305 ;
306 [label="Duration <= 15.5\nmse = 0.6\nsamples = 84\nvalue = 2.4"] ;
305 -> 306 ;
307 [label="month <= 1.5\nmse = 0.2\nsamples = 6\nvalue = 1.7"] ;
306 -> 307 ;
308 [label="mse = 0.0\nsamples = 2\nvalue = 1.0"] ;
307 -> 308 ;
309 [label="mse = 0.0\nsamples = 4\nvalue = 2.0"] ;
307 -> 309 ;
310 [label="Duration <= 16.5\nmse = 0.6\nsamples = 78\nvalue = 2.5"] ;
306 -> 310 ;
311 [label="mse = 0.0\nsamples = 1\nvalue = 4.0"] ;
310 -> 311 ;
312 [label="day <= 22.5\nmse = 0.6\nsamples = 77\nvalue = 2.5"] ;
310 -> 312 ;
313 [label="hour <= 12.5\nmse = 0.5\nsamples = 71\nvalue = 2.4"] ;
312 -> 313 ;
314 [label="Duration <= 17.5\nmse = 0.5\nsamples = 43\nvalue = 2.5"] ;
313 -> 314 ;
315 [label="hour <= 11.5\nmse = 0.4\nsamples = 8\nvalue = 2.1"] ;
314 -> 315 ;
316 [label="day <= 7.5\nmse = 0.2\nsamples = 7\nvalue = 2.3"] ;
315 -> 316 ;
317 [label="mse = 0.0\nsamples = 2\nvalue = 3.0"] ;
316 -> 317 ;
318 [label="year <= 2014.5\nmse = 0.1\nsamples = 5\nvalue = 2.1"] ;
316 -> 318 ;
319 [label="mse = 0.0\nsamples = 3\nvalue = 2.0"] ;
318 -> 319 ;
320 [label="day <= 15.5\nmse = 0.2\nsamples = 2\nvalue = 2.3"] ;
318 -> 320 ;
321 [label="mse = 0.0\nsamples = 1\nvalue = 2.0"] ;
320 -> 321 ;
322 [label="mse = 0.0\nsamples = 1\nvalue = 3.0"] ;
320 -> 322 ;
323 [label="mse = 0.0\nsamples = 1\nvalue = 1.0"] ;
315 -> 323 ;
324 [label="day <= 3.5\nmse = 0.5\nsamples = 35\nvalue = 2.6"] ;
314 -> 324 ;
325 [label="month <= 3.5\nmse = 0.1\nsamples = 4\nvalue = 2.1"] ;
324 -> 325 ;
326 [label="mse = 0.0\nsamples = 1\nvalue = 3.0"] ;
325 -> 326 ;
327 [label="mse = 0.0\nsamples = 3\nvalue = 2.0"] ;
325 -> 327 ;
328 [label="hour <= 11.5\nmse = 0.5\nsamples = 31\nvalue = 2.7"] ;
324 -> 328 ;
329 [label="year <= 2012.5\nmse = 0.4\nsamples = 27\nvalue = 2.6"] ;
328 -> 329 ;
330 [label="mse = 0.0\nsamples = 2\nvalue = 2.0"] ;
329 -> 330 ;
331 [label="month <= 11.5\nmse = 0.4\nsamples = 25\nvalue = 2.7"] ;
329 -> 331 ;
332 [label="month <= 2.5\nmse = 0.4\nsamples = 20\nvalue = 2.8"] ;
331 -> 332 ;
333 [label="month <= 1.5\nmse = 0.9\nsamples = 3\nvalue = 3.3"] ;
332 -> 333 ;
334 [label="mse = 0.0\nsamples = 1\nvalue = 2.0"] ;
333 -> 334 ;
335 [label="mse = 0.0\nsamples = 2\nvalue = 4.0"] ;
333 -> 335 ;
336 [label="month <= 3.5\nmse = 0.4\nsamples = 17\nvalue = 2.7"] ;
332 -> 336 ;
337 [label="year <= 2014.5\nmse = 0.2\nsamples = 4\nvalue = 2.3"] ;
336 -> 337 ;
338 [label="mse = 0.0\nsamples = 3\nvalue = 2.0"] ;
337 -> 338 ;
339 [label="mse = 0.0\nsamples = 1\nvalue = 3.0"] ;
337 -> 339 ;
340 [label="day <= 15.5\nmse = 0.3\nsamples = 13\nvalue = 2.8"] ;
336 -> 340 ;
341 [label="day <= 6.5\nmse = 0.2\nsamples = 8\nvalue = 2.7"] ;
340 -> 341 ;
342 [label="mse = 0.0\nsamples = 2\nvalue = 3.0"] ;
341 -> 342 ;
343 [label="month <= 8.5\nmse = 0.2\nsamples = 6\nvalue = 2.5"] ;
341 -> 343 ;
344 [label="month <= 6.5\nmse = 0.2\nsamples = 4\nvalue = 2.2"] ;
343 -> 344 ;
345 [label="mse = 0.0\nsamples = 1\nvalue = 3.0"] ;
344 -> 345 ;
346 [label="mse = 0.0\nsamples = 3\nvalue = 2.0"] ;
344 -> 346 ;
347 [label="month <= 9.5\nmse = 0.2\nsamples = 2\nvalue = 2.8"] ;
343 -> 347 ;
348 [label="mse = 0.0\nsamples = 1\nvalue = 3.0"] ;
347 -> 348 ;
349 [label="mse = 0.0\nsamples = 1\nvalue = 2.0"] ;
347 -> 349 ;
350 [label="Duration <= 21.5\nmse = 0.2\nsamples = 5\nvalue = 3.4"] ;
340 -> 350 ;
351 [label="year <= 2014.5\nmse = 0.2\nsamples = 3\nvalue = 3.7"] ;
350 -> 351 ;
352 [label="mse = 0.0\nsamples = 1\nvalue = 3.0"] ;
351 -> 352 ;
353 [label="mse = 0.0\nsamples = 2\nvalue = 4.0"] ;
351 -> 353 ;
354 [label="mse = 0.0\nsamples = 2\nvalue = 3.0"] ;
350 -> 354 ;
355 [label="day <= 11.5\nmse = 0.1\nsamples = 5\nvalue = 2.2"] ;
331 -> 355 ;
356 [label="mse = 0.0\nsamples = 1\nvalue = 3.0"] ;
355 -> 356 ;
357 [label="mse = 0.0\nsamples = 4\nvalue = 2.0"] ;
355 -> 357 ;
358 [label="year <= 2014.0\nmse = 0.4\nsamples = 4\nvalue = 3.2"] ;
328 -> 358 ;
359 [label="mse = 0.0\nsamples = 1\nvalue = 4.0"] ;
358 -> 359 ;
360 [label="day <= 10.5\nmse = 0.2\nsamples = 3\nvalue = 2.8"] ;
358 -> 360 ;
361 [label="mse = 0.0\nsamples = 1\nvalue = 2.0"] ;
360 -> 361 ;
362 [label="mse = 0.0\nsamples = 2\nvalue = 3.0"] ;
360 -> 362 ;
363 [label="Duration <= 21.5\nmse = 0.5\nsamples = 28\nvalue = 2.1"] ;
313 -> 363 ;
364 [label="month <= 6.5\nmse = 0.4\nsamples = 12\nvalue = 1.8"] ;
363 -> 364 ;
365 [label="Duration <= 19.5\nmse = 0.2\nsamples = 7\nvalue = 1.5"] ;
364 -> 365 ;
366 [label="mse = 0.0\nsamples = 3\nvalue = 2.0"] ;
365 -> 366 ;
367 [label="day <= 19.5\nmse = 0.2\nsamples = 4\nvalue = 1.4"] ;
365 -> 367 ;
368 [label="month <= 4.0\nmse = 0.1\nsamples = 3\nvalue = 1.2"] ;
367 -> 368 ;
369 [label="day <= 8.0\nmse = 0.2\nsamples = 2\nvalue = 1.3"] ;
368 -> 369 ;
370 [label="mse = 0.0\nsamples = 1\nvalue = 1.0"] ;
369 -> 370 ;
371 [label="mse = 0.0\nsamples = 1\nvalue = 2.0"] ;
369 -> 371 ;
372 [label="mse = 0.0\nsamples = 1\nvalue = 1.0"] ;
368 -> 372 ;
373 [label="mse = 0.0\nsamples = 1\nvalue = 2.0"] ;
367 -> 373 ;
374 [label="Duration <= 20.5\nmse = 0.2\nsamples = 5\nvalue = 2.4"] ;
364 -> 374 ;
375 [label="mse = 0.0\nsamples = 3\nvalue = 2.0"] ;
374 -> 375 ;
376 [label="mse = 0.0\nsamples = 2\nvalue = 3.0"] ;
374 -> 376 ;
377 [label="day <= 4.5\nmse = 0.3\nsamples = 16\nvalue = 2.4"] ;
363 -> 377 ;
378 [label="mse = 0.0\nsamples = 1\nvalue = 1.0"] ;
377 -> 378 ;
379 [label="Duration <= 22.5\nmse = 0.2\nsamples = 15\nvalue = 2.5"] ;
377 -> 379 ;
380 [label="mse = 0.0\nsamples = 4\nvalue = 3.0"] ;
379 -> 380 ;
381 [label="month <= 10.0\nmse = 0.2\nsamples = 11\nvalue = 2.4"] ;
379 -> 381 ;
382 [label="Duration <= 23.5\nmse = 0.1\nsamples = 8\nvalue = 2.2"] ;
381 -> 382 ;
383 [label="mse = 0.0\nsamples = 5\nvalue = 2.0"] ;
382 -> 383 ;
384 [label="year <= 2013.5\nmse = 0.2\nsamples = 3\nvalue = 2.7"] ;
382 -> 384 ;
385 [label="mse = 0.0\nsamples = 1\nvalue = 2.0"] ;
384 -> 385 ;
386 [label="mse = 0.0\nsamples = 2\nvalue = 3.0"] ;
384 -> 386 ;
387 [label="mse = 0.0\nsamples = 3\nvalue = 3.0"] ;
381 -> 387 ;
388 [label="year <= 2013.0\nmse = 0.5\nsamples = 6\nvalue = 3.1"] ;
312 -> 388 ;
389 [label="mse = 0.0\nsamples = 1\nvalue = 4.0"] ;
388 -> 389 ;
390 [label="day <= 23.5\nmse = 0.2\nsamples = 5\nvalue = 2.7"] ;
388 -> 390 ;
391 [label="hour <= 12.5\nmse = 0.2\nsamples = 2\nvalue = 2.3"] ;
390 -> 391 ;
392 [label="mse = 0.0\nsamples = 1\nvalue = 3.0"] ;
391 -> 392 ;
393 [label="mse = 0.0\nsamples = 1\nvalue = 2.0"] ;
391 -> 393 ;
394 [label="mse = 0.0\nsamples = 3\nvalue = 3.0"] ;
390 -> 394 ;
395 [label="year <= 2013.5\nmse = 0.6\nsamples = 15\nvalue = 1.9"] ;
305 -> 395 ;
396 [label="Duration <= 20.5\nmse = 0.4\nsamples = 5\nvalue = 1.2"] ;
395 -> 396 ;
397 [label="mse = 0.0\nsamples = 1\nvalue = 3.0"] ;
396 -> 397 ;
398 [label="mse = 0.0\nsamples = 4\nvalue = 1.0"] ;
396 -> 398 ;
399 [label="Duration <= 23.0\nmse = 0.2\nsamples = 10\nvalue = 2.3"] ;
395 -> 399 ;
400 [label="month <= 1.5\nmse = 0.1\nsamples = 8\nvalue = 2.2"] ;
399 -> 400 ;
401 [label="mse = 0.0\nsamples = 1\nvalue = 3.0"] ;
400 -> 401 ;
402 [label="Duration <= 19.0\nmse = 0.1\nsamples = 7\nvalue = 2.1"] ;
400 -> 402 ;
403 [label="mse = 0.0\nsamples = 4\nvalue = 2.0"] ;
402 -> 403 ;
404 [label="hour <= 11.5\nmse = 0.2\nsamples = 3\nvalue = 2.3"] ;
402 -> 404 ;
405 [label="mse = 0.0\nsamples = 1\nvalue = 3.0"] ;
404 -> 405 ;
406 [label="mse = 0.0\nsamples = 2\nvalue = 2.0"] ;
404 -> 406 ;
407 [label="mse = 0.0\nsamples = 2\nvalue = 3.0"] ;
399 -> 407 ;
408 [label="hour <= 14.5\nmse = 0.5\nsamples = 11\nvalue = 2.9"] ;
304 -> 408 ;
409 [label="Duration <= 23.0\nmse = 0.4\nsamples = 9\nvalue = 3.1"] ;
408 -> 409 ;
410 [label="day <= 28.5\nmse = 0.1\nsamples = 8\nvalue = 2.9"] ;
409 -> 410 ;
411 [label="hour <= 11.0\nmse = 0.2\nsamples = 2\nvalue = 2.7"] ;
410 -> 411 ;
412 [label="mse = 0.0\nsamples = 1\nvalue = 3.0"] ;
411 -> 412 ;
413 [label="mse = 0.0\nsamples = 1\nvalue = 2.0"] ;
411 -> 413 ;
414 [label="mse = 0.0\nsamples = 6\nvalue = 3.0"] ;
410 -> 414 ;
415 [label="mse = 0.0\nsamples = 1\nvalue = 5.0"] ;
409 -> 415 ;
416 [label="mse = 0.0\nsamples = 2\nvalue = 2.0"] ;
408 -> 416 ;
417 [label="month <= 3.5\nmse = 0.7\nsamples = 79\nvalue = 2.9"] ;
303 -> 417 ;
418 [label="year <= 2013.5\nmse = 0.9\nsamples = 19\nvalue = 3.4"] ;
417 -> 418 ;
419 [label="hour <= 18.5\nmse = 0.6\nsamples = 5\nvalue = 4.2"] ;
418 -> 419 ;
420 [label="mse = 0.0\nsamples = 1\nvalue = 3.0"] ;
419 -> 420 ;
421 [label="Duration <= 21.5\nmse = 0.2\nsamples = 4\nvalue = 4.5"] ;
419 -> 421 ;
422 [label="mse = 0.0\nsamples = 1\nvalue = 5.0"] ;
421 -> 422 ;
423 [label="hour <= 20.0\nmse = 0.2\nsamples = 3\nvalue = 4.3"] ;
421 -> 423 ;
424 [label="mse = 0.0\nsamples = 1\nvalue = 5.0"] ;
423 -> 424 ;
425 [label="mse = 0.0\nsamples = 2\nvalue = 4.0"] ;
423 -> 425 ;
426 [label="day <= 22.0\nmse = 0.8\nsamples = 14\nvalue = 3.2"] ;
418 -> 426 ;
427 [label="month <= 1.5\nmse = 0.4\nsamples = 10\nvalue = 3.6"] ;
426 -> 427 ;
428 [label="Duration <= 18.0\nmse = 0.3\nsamples = 5\nvalue = 4.0"] ;
427 -> 428 ;
429 [label="mse = 0.0\nsamples = 1\nvalue = 5.0"] ;
428 -> 429 ;
430 [label="day <= 10.0\nmse = 0.2\nsamples = 4\nvalue = 3.8"] ;
428 -> 430 ;
431 [label="mse = 0.0\nsamples = 1\nvalue = 3.0"] ;
430 -> 431 ;
432 [label="mse = 0.0\nsamples = 3\nvalue = 4.0"] ;
430 -> 432 ;
433 [label="year <= 2014.5\nmse = 0.2\nsamples = 5\nvalue = 3.2"] ;
427 -> 433 ;
434 [label="mse = 0.0\nsamples = 4\nvalue = 3.0"] ;
433 -> 434 ;
435 [label="mse = 0.0\nsamples = 1\nvalue = 4.0"] ;
433 -> 435 ;
436 [label="day <= 24.5\nmse = 0.6\nsamples = 4\nvalue = 2.3"] ;
426 -> 436 ;
437 [label="hour <= 22.0\nmse = 0.2\nsamples = 2\nvalue = 1.7"] ;
436 -> 437 ;
438 [label="mse = 0.0\nsamples = 1\nvalue = 1.0"] ;
437 -> 438 ;
439 [label="mse = 0.0\nsamples = 1\nvalue = 2.0"] ;
437 -> 439 ;
440 [label="mse = 0.0\nsamples = 2\nvalue = 3.0"] ;
436 -> 440 ;
441 [label="year <= 2013.5\nmse = 0.6\nsamples = 60\nvalue = 2.7"] ;
417 -> 441 ;
442 [label="hour <= 21.5\nmse = 0.8\nsamples = 15\nvalue = 2.2"] ;
441 -> 442 ;
443 [label="hour <= 18.5\nmse = 0.5\nsamples = 10\nvalue = 2.5"] ;
442 -> 443 ;
444 [label="day <= 4.0\nmse = 0.1\nsamples = 6\nvalue = 1.9"] ;
443 -> 444 ;
445 [label="Duration <= 21.0\nmse = 0.2\nsamples = 2\nvalue = 1.7"] ;
444 -> 445 ;
446 [label="mse = 0.0\nsamples = 1\nvalue = 2.0"] ;
445 -> 446 ;
447 [label="mse = 0.0\nsamples = 1\nvalue = 1.0"] ;
445 -> 447 ;
448 [label="mse = 0.0\nsamples = 4\nvalue = 2.0"] ;
444 -> 448 ;
449 [label="day <= 4.0\nmse = 0.2\nsamples = 4\nvalue = 3.2"] ;
443 -> 449 ;
450 [label="mse = 0.0\nsamples = 1\nvalue = 4.0"] ;
449 -> 450 ;
451 [label="mse = 0.0\nsamples = 3\nvalue = 3.0"] ;
449 -> 451 ;
452 [label="Duration <= 8.0\nmse = 0.5\nsamples = 5\nvalue = 1.3"] ;
442 -> 452 ;
453 [label="mse = 0.0\nsamples = 1\nvalue = 3.0"] ;
452 -> 453 ;
454 [label="mse = 0.0\nsamples = 4\nvalue = 1.0"] ;
452 -> 454 ;
455 [label="hour <= 20.5\nmse = 0.3\nsamples = 45\nvalue = 2.9"] ;
441 -> 455 ;
456 [label="hour <= 19.5\nmse = 0.1\nsamples = 34\nvalue = 2.8"] ;
455 -> 456 ;
457 [label="day <= 16.5\nmse = 0.1\nsamples = 32\nvalue = 2.9"] ;
456 -> 457 ;
458 [label="Duration <= 22.0\nmse = 0.1\nsamples = 17\nvalue = 2.9"] ;
457 -> 458 ;
459 [label="mse = 0.0\nsamples = 13\nvalue = 3.0"] ;
458 -> 459 ;
460 [label="day <= 11.0\nmse = 0.2\nsamples = 4\nvalue = 2.8"] ;
458 -> 460 ;
461 [label="mse = 0.0\nsamples = 1\nvalue = 2.0"] ;
460 -> 461 ;
462 [label="mse = 0.0\nsamples = 3\nvalue = 3.0"] ;
460 -> 462 ;
463 [label="Duration <= 17.5\nmse = 0.2\nsamples = 15\nvalue = 2.8"] ;
457 -> 463 ;
464 [label="mse = 0.0\nsamples = 2\nvalue = 2.0"] ;
463 -> 464 ;
465 [label="day <= 25.5\nmse = 0.1\nsamples = 13\nvalue = 2.8"] ;
463 -> 465 ;
466 [label="mse = 0.0\nsamples = 6\nvalue = 3.0"] ;
465 -> 466 ;
467 [label="Duration <= 18.5\nmse = 0.2\nsamples = 7\nvalue = 2.7"] ;
465 -> 467 ;
468 [label="mse = 0.0\nsamples = 1\nvalue = 2.0"] ;
467 -> 468 ;
469 [label="month <= 5.5\nmse = 0.1\nsamples = 6\nvalue = 2.9"] ;
467 -> 469 ;
470 [label="Duration <= 22.0\nmse = 0.2\nsamples = 2\nvalue = 2.5"] ;
469 -> 470 ;
471 [label="mse = 0.0\nsamples = 1\nvalue = 3.0"] ;
470 -> 471 ;
472 [label="mse = 0.0\nsamples = 1\nvalue = 2.0"] ;
470 -> 472 ;
473 [label="mse = 0.0\nsamples = 4\nvalue = 3.0"] ;
469 -> 473 ;
474 [label="day <= 12.0\nmse = 0.2\nsamples = 2\nvalue = 2.3"] ;
456 -> 474 ;
475 [label="mse = 0.0\nsamples = 1\nvalue = 3.0"] ;
474 -> 475 ;
476 [label="mse = 0.0\nsamples = 1\nvalue = 2.0"] ;
474 -> 476 ;
477 [label="month <= 5.5\nmse = 1.0\nsamples = 11\nvalue = 3.4"] ;
455 -> 477 ;
478 [label="day <= 7.5\nmse = 1.5\nsamples = 4\nvalue = 4.0"] ;
477 -> 478 ;
479 [label="mse = 0.0\nsamples = 2\nvalue = 3.0"] ;
478 -> 479 ;
480 [label="day <= 19.5\nmse = 1.0\nsamples = 2\nvalue = 5.0"] ;
478 -> 480 ;
481 [label="mse = 0.0\nsamples = 1\nvalue = 6.0"] ;
480 -> 481 ;
482 [label="mse = 0.0\nsamples = 1\nvalue = 4.0"] ;
480 -> 482 ;
483 [label="Duration <= 22.5\nmse = 0.3\nsamples = 7\nvalue = 3.0"] ;
477 -> 483 ;
484 [label="month <= 10.5\nmse = 0.1\nsamples = 6\nvalue = 3.2"] ;
483 -> 484 ;
485 [label="mse = 0.0\nsamples = 4\nvalue = 3.0"] ;
484 -> 485 ;
486 [label="day <= 16.0\nmse = 0.2\nsamples = 2\nvalue = 3.5"] ;
484 -> 486 ;
487 [label="mse = 0.0\nsamples = 1\nvalue = 3.0"] ;
486 -> 487 ;
488 [label="mse = 0.0\nsamples = 1\nvalue = 4.0"] ;
486 -> 488 ;
489 [label="mse = 0.0\nsamples = 1\nvalue = 2.0"] ;
483 -> 489 ;
490 [label="day <= 26.5\nmse = 0.5\nsamples = 95\nvalue = 3.0"] ;
302 -> 490 ;
491 [label="day <= 17.5\nmse = 0.4\nsamples = 83\nvalue = 3.0"] ;
490 -> 491 ;
492 [label="month <= 4.5\nmse = 0.4\nsamples = 54\nvalue = 2.9"] ;
491 -> 492 ;
493 [label="Duration <= 8.5\nmse = 0.4\nsamples = 19\nvalue = 3.3"] ;
492 -> 493 ;
494 [label="mse = 0.0\nsamples = 1\nvalue = 5.0"] ;
493 -> 494 ;
495 [label="hour <= 14.5\nmse = 0.2\nsamples = 18\nvalue = 3.1"] ;
493 -> 495 ;
496 [label="Duration <= 20.5\nmse = 0.2\nsamples = 8\nvalue = 3.4"] ;
495 -> 496 ;
497 [label="mse = 0.0\nsamples = 2\nvalue = 4.0"] ;
496 -> 497 ;
498 [label="month <= 1.5\nmse = 0.2\nsamples = 6\nvalue = 3.2"] ;
496 -> 498 ;
499 [label="mse = 0.0\nsamples = 2\nvalue = 3.0"] ;
498 -> 499 ;
500 [label="day <= 9.0\nmse = 0.2\nsamples = 4\nvalue = 3.4"] ;
498 -> 500 ;
501 [label="mse = 0.0\nsamples = 2\nvalue = 3.0"] ;
500 -> 501 ;
502 [label="mse = 0.0\nsamples = 2\nvalue = 4.0"] ;
500 -> 502 ;
503 [label="Duration <= 23.5\nmse = 0.1\nsamples = 10\nvalue = 2.9"] ;
495 -> 503 ;
504 [label="mse = 0.0\nsamples = 7\nvalue = 3.0"] ;
503 -> 504 ;
505 [label="year <= 2016.5\nmse = 0.2\nsamples = 3\nvalue = 2.8"] ;
503 -> 505 ;
506 [label="mse = 0.0\nsamples = 1\nvalue = 2.0"] ;
505 -> 506 ;
507 [label="mse = 0.0\nsamples = 2\nvalue = 3.0"] ;
505 -> 507 ;
508 [label="day <= 2.5\nmse = 0.4\nsamples = 35\nvalue = 2.8"] ;
492 -> 508 ;
509 [label="Duration <= 23.5\nmse = 0.3\nsamples = 12\nvalue = 3.1"] ;
508 -> 509 ;
510 [label="mse = 0.0\nsamples = 8\nvalue = 3.0"] ;
509 -> 510 ;
511 [label="month <= 8.5\nmse = 0.8\nsamples = 4\nvalue = 3.6"] ;
509 -> 511 ;
512 [label="mse = 0.0\nsamples = 3\nvalue = 3.0"] ;
511 -> 512 ;
513 [label="mse = 0.0\nsamples = 1\nvalue = 5.0"] ;
511 -> 513 ;
514 [label="hour <= 14.5\nmse = 0.3\nsamples = 23\nvalue = 2.5"] ;
508 -> 514 ;
515 [label="month <= 9.5\nmse = 0.3\nsamples = 9\nvalue = 2.1"] ;
514 -> 515 ;
516 [label="Duration <= 10.0\nmse = 0.1\nsamples = 7\nvalue = 1.9"] ;
515 -> 516 ;
517 [label="mse = 0.0\nsamples = 1\nvalue = 1.0"] ;
516 -> 517 ;
518 [label="mse = 0.0\nsamples = 6\nvalue = 2.0"] ;
516 -> 518 ;
519 [label="mse = 0.0\nsamples = 2\nvalue = 3.0"] ;
515 -> 519 ;
520 [label="year <= 2017.5\nmse = 0.2\nsamples = 14\nvalue = 2.8"] ;
514 -> 520 ;
521 [label="month <= 10.0\nmse = 0.1\nsamples = 13\nvalue = 2.9"] ;
520 -> 521 ;
522 [label="month <= 5.5\nmse = 0.1\nsamples = 11\nvalue = 2.9"] ;
521 -> 522 ;
523 [label="Duration <= 21.0\nmse = 0.2\nsamples = 3\nvalue = 2.8"] ;
522 -> 523 ;
524 [label="mse = 0.0\nsamples = 2\nvalue = 3.0"] ;
523 -> 524 ;
525 [label="mse = 0.0\nsamples = 1\nvalue = 2.0"] ;
523 -> 525 ;
526 [label="mse = 0.0\nsamples = 8\nvalue = 3.0"] ;
522 -> 526 ;
527 [label="Duration <= 23.0\nmse = 0.2\nsamples = 2\nvalue = 2.7"] ;
521 -> 527 ;
528 [label="mse = 0.0\nsamples = 1\nvalue = 2.0"] ;
527 -> 528 ;
529 [label="mse = 0.0\nsamples = 1\nvalue = 3.0"] ;
527 -> 529 ;
530 [label="mse = 0.0\nsamples = 1\nvalue = 2.0"] ;
520 -> 530 ;
531 [label="month <= 11.0\nmse = 0.3\nsamples = 29\nvalue = 3.2"] ;
491 -> 531 ;
532 [label="month <= 8.5\nmse = 0.2\nsamples = 26\nvalue = 3.3"] ;
531 -> 532 ;
533 [label="hour <= 7.5\nmse = 0.1\nsamples = 19\nvalue = 3.1"] ;
532 -> 533 ;
534 [label="mse = 0.0\nsamples = 1\nvalue = 4.0"] ;
533 -> 534 ;
535 [label="hour <= 20.5\nmse = 0.0\nsamples = 18\nvalue = 3.0"] ;
533 -> 535 ;
536 [label="mse = 0.0\nsamples = 16\nvalue = 3.0"] ;
535 -> 536 ;
537 [label="day <= 22.5\nmse = 0.2\nsamples = 2\nvalue = 3.5"] ;
535 -> 537 ;
538 [label="mse = 0.0\nsamples = 1\nvalue = 3.0"] ;
537 -> 538 ;
539 [label="mse = 0.0\nsamples = 1\nvalue = 4.0"] ;
537 -> 539 ;
540 [label="Duration <= 22.5\nmse = 0.1\nsamples = 7\nvalue = 3.8"] ;
532 -> 540 ;
541 [label="mse = 0.0\nsamples = 4\nvalue = 4.0"] ;
540 -> 541 ;
542 [label="hour <= 18.0\nmse = 0.2\nsamples = 3\nvalue = 3.3"] ;
540 -> 542 ;
543 [label="mse = 0.0\nsamples = 2\nvalue = 3.0"] ;
542 -> 543 ;
544 [label="mse = 0.0\nsamples = 1\nvalue = 4.0"] ;
542 -> 544 ;
545 [label="Duration <= 22.0\nmse = 0.6\nsamples = 3\nvalue = 2.4"] ;
531 -> 545 ;
546 [label="mse = 0.0\nsamples = 1\nvalue = 4.0"] ;
545 -> 546 ;
547 [label="mse = 0.0\nsamples = 2\nvalue = 2.0"] ;
545 -> 547 ;
548 [label="Duration <= 10.5\nmse = 0.6\nsamples = 12\nvalue = 2.4"] ;
490 -> 548 ;
549 [label="mse = 0.0\nsamples = 1\nvalue = 1.0"] ;
548 -> 549 ;
550 [label="Duration <= 23.5\nmse = 0.2\nsamples = 11\nvalue = 2.7"] ;
548 -> 550 ;
551 [label="month <= 10.5\nmse = 0.1\nsamples = 7\nvalue = 2.9"] ;
550 -> 551 ;
552 [label="mse = 0.0\nsamples = 6\nvalue = 3.0"] ;
551 -> 552 ;
553 [label="mse = 0.0\nsamples = 1\nvalue = 2.0"] ;
551 -> 553 ;
554 [label="month <= 7.0\nmse = 0.2\nsamples = 4\nvalue = 2.4"] ;
550 -> 554 ;
555 [label="hour <= 8.0\nmse = 0.2\nsamples = 3\nvalue = 2.2"] ;
554 -> 555 ;
556 [label="mse = 0.0\nsamples = 1\nvalue = 3.0"] ;
555 -> 556 ;
557 [label="mse = 0.0\nsamples = 2\nvalue = 2.0"] ;
555 -> 557 ;
558 [label="mse = 0.0\nsamples = 1\nvalue = 3.0"] ;
554 -> 558 ;
559 [label="month <= 7.5\nmse = 0.8\nsamples = 592\nvalue = 3.1"] ;
301 -> 559 ;
560 [label="day <= 3.5\nmse = 0.7\nsamples = 359\nvalue = 3.0"] ;
559 -> 560 ;
561 [label="year <= 2018.5\nmse = 1.2\nsamples = 37\nvalue = 3.5"] ;
560 -> 561 ;
562 [label="hour <= 21.5\nmse = 1.0\nsamples = 36\nvalue = 3.4"] ;
561 -> 562 ;
563 [label="day <= 2.5\nmse = 0.6\nsamples = 34\nvalue = 3.3"] ;
562 -> 563 ;
564 [label="day <= 1.5\nmse = 0.6\nsamples = 21\nvalue = 3.6"] ;
563 -> 564 ;
565 [label="hour <= 9.5\nmse = 0.4\nsamples = 12\nvalue = 3.4"] ;
564 -> 565 ;
566 [label="Duration <= 30.0\nmse = 0.6\nsamples = 4\nvalue = 3.8"] ;
565 -> 566 ;
567 [label="mse = 0.0\nsamples = 2\nvalue = 3.0"] ;
566 -> 567 ;
568 [label="year <= 2014.5\nmse = 0.2\nsamples = 2\nvalue = 4.3"] ;
566 -> 568 ;
569 [label="mse = 0.0\nsamples = 1\nvalue = 4.0"] ;
568 -> 569 ;
570 [label="mse = 0.0\nsamples = 1\nvalue = 5.0"] ;
568 -> 570 ;
571 [label="month <= 3.5\nmse = 0.1\nsamples = 8\nvalue = 3.1"] ;
565 -> 571 ;
572 [label="Duration <= 32.5\nmse = 0.2\nsamples = 4\nvalue = 3.2"] ;
571 -> 572 ;
573 [label="mse = 0.0\nsamples = 3\nvalue = 3.0"] ;
572 -> 573 ;
574 [label="mse = 0.0\nsamples = 1\nvalue = 4.0"] ;
572 -> 574 ;
575 [label="mse = 0.0\nsamples = 4\nvalue = 3.0"] ;
571 -> 575 ;
576 [label="year <= 2016.5\nmse = 0.7\nsamples = 9\nvalue = 3.8"] ;
564 -> 576 ;
577 [label="Duration <= 30.5\nmse = 0.6\nsamples = 6\nvalue = 4.1"] ;
576 -> 577 ;
578 [label="month <= 1.5\nmse = 0.4\nsamples = 5\nvalue = 3.8"] ;
577 -> 578 ;
579 [label="mse = 0.0\nsamples = 1\nvalue = 5.0"] ;
578 -> 579 ;
580 [label="Duration <= 25.5\nmse = 0.2\nsamples = 4\nvalue = 3.6"] ;
578 -> 580 ;
581 [label="mse = 0.0\nsamples = 1\nvalue = 3.0"] ;
580 -> 581 ;
582 [label="month <= 2.5\nmse = 0.1\nsamples = 3\nvalue = 3.8"] ;
580 -> 582 ;
583 [label="mse = 0.0\nsamples = 1\nvalue = 4.0"] ;
582 -> 583 ;
584 [label="month <= 5.0\nmse = 0.2\nsamples = 2\nvalue = 3.7"] ;
582 -> 584 ;
585 [label="mse = 0.0\nsamples = 1\nvalue = 3.0"] ;
584 -> 585 ;
586 [label="mse = 0.0\nsamples = 1\nvalue = 4.0"] ;
584 -> 586 ;
587 [label="mse = 0.0\nsamples = 1\nvalue = 5.0"] ;
577 -> 587 ;
588 [label="mse = 0.0\nsamples = 3\nvalue = 3.0"] ;
576 -> 588 ;
589 [label="hour <= 9.5\nmse = 0.5\nsamples = 13\nvalue = 3.0"] ;
563 -> 589 ;
590 [label="year <= 2015.5\nmse = 0.9\nsamples = 2\nvalue = 1.7"] ;
589 -> 590 ;
591 [label="mse = 0.0\nsamples = 1\nvalue = 3.0"] ;
590 -> 591 ;
592 [label="mse = 0.0\nsamples = 1\nvalue = 1.0"] ;
590 -> 592 ;
593 [label="hour <= 11.0\nmse = 0.1\nsamples = 11\nvalue = 3.1"] ;
589 -> 593 ;
594 [label="mse = 0.0\nsamples = 1\nvalue = 4.0"] ;
593 -> 594 ;
595 [label="year <= 2017.0\nmse = 0.0\nsamples = 10\nvalue = 3.1"] ;
593 -> 595 ;
596 [label="mse = 0.0\nsamples = 7\nvalue = 3.0"] ;
595 -> 596 ;
597 [label="hour <= 15.5\nmse = 0.2\nsamples = 3\nvalue = 3.2"] ;
595 -> 597 ;
598 [label="mse = 0.0\nsamples = 1\nvalue = 4.0"] ;
597 -> 598 ;
599 [label="mse = 0.0\nsamples = 2\nvalue = 3.0"] ;
597 -> 599 ;
600 [label="month <= 4.0\nmse = 3.0\nsamples = 2\nvalue = 5.0"] ;
562 -> 600 ;
601 [label="mse = 0.0\nsamples = 1\nvalue = 2.0"] ;
600 -> 601 ;
602 [label="mse = 0.0\nsamples = 1\nvalue = 6.0"] ;
600 -> 602 ;
603 [label="mse = 0.0\nsamples = 1\nvalue = 7.0"] ;
561 -> 603 ;
604 [label="year <= 2012.5\nmse = 0.6\nsamples = 322\nvalue = 2.9"] ;
560 -> 604 ;
605 [label="hour <= 17.5\nmse = 0.8\nsamples = 22\nvalue = 2.4"] ;
604 -> 605 ;
606 [label="Duration <= 27.5\nmse = 0.7\nsamples = 19\nvalue = 2.6"] ;
605 -> 606 ;
607 [label="hour <= 16.5\nmse = 0.1\nsamples = 4\nvalue = 1.8"] ;
606 -> 607 ;
608 [label="mse = 0.0\nsamples = 3\nvalue = 2.0"] ;
607 -> 608 ;
609 [label="mse = 0.0\nsamples = 1\nvalue = 1.0"] ;
607 -> 609 ;
610 [label="month <= 6.5\nmse = 0.7\nsamples = 15\nvalue = 2.8"] ;
606 -> 610 ;
611 [label="month <= 4.5\nmse = 0.7\nsamples = 13\nvalue = 2.9"] ;
610 -> 611 ;
612 [label="Duration <= 29.5\nmse = 0.2\nsamples = 8\nvalue = 2.5"] ;
611 -> 612 ;
613 [label="day <= 10.0\nmse = 0.2\nsamples = 4\nvalue = 2.8"] ;
612 -> 613 ;
614 [label="mse = 0.0\nsamples = 1\nvalue = 2.0"] ;
613 -> 614 ;
615 [label="hour <= 16.5\nmse = 0.1\nsamples = 3\nvalue = 2.9"] ;
613 -> 615 ;
616 [label="month <= 1.5\nmse = 0.2\nsamples = 2\nvalue = 2.7"] ;
615 -> 616 ;
617 [label="mse = 0.0\nsamples = 1\nvalue = 3.0"] ;
616 -> 617 ;
618 [label="mse = 0.0\nsamples = 1\nvalue = 2.0"] ;
616 -> 618 ;
619 [label="mse = 0.0\nsamples = 1\nvalue = 3.0"] ;
615 -> 619 ;
620 [label="mse = 0.0\nsamples = 4\nvalue = 2.0"] ;
612 -> 620 ;
621 [label="day <= 18.5\nmse = 0.5\nsamples = 5\nvalue = 3.7"] ;
611 -> 621 ;
622 [label="Duration <= 33.0\nmse = 0.2\nsamples = 3\nvalue = 4.2"] ;
621 -> 622 ;
623 [label="mse = 0.0\nsamples = 2\nvalue = 4.0"] ;
622 -> 623 ;
624 [label="mse = 0.0\nsamples = 1\nvalue = 5.0"] ;
622 -> 624 ;
625 [label="mse = 0.0\nsamples = 2\nvalue = 3.0"] ;
621 -> 625 ;
626 [label="mse = 0.0\nsamples = 2\nvalue = 2.0"] ;
610 -> 626 ;
627 [label="Duration <= 31.5\nmse = 0.2\nsamples = 3\nvalue = 1.5"] ;
605 -> 627 ;
628 [label="mse = 0.0\nsamples = 1\nvalue = 1.0"] ;
627 -> 628 ;
629 [label="mse = 0.0\nsamples = 2\nvalue = 2.0"] ;
627 -> 629 ;
630 [label="hour <= 21.5\nmse = 0.6\nsamples = 300\nvalue = 2.9"] ;
604 -> 630 ;
631 [label="Duration <= 29.5\nmse = 0.6\nsamples = 271\nvalue = 2.9"] ;
630 -> 631 ;
632 [label="year <= 2013.5\nmse = 0.5\nsamples = 146\nvalue = 2.8"] ;
631 -> 632 ;
633 [label="day <= 26.5\nmse = 0.8\nsamples = 12\nvalue = 2.2"] ;
632 -> 633 ;
634 [label="Duration <= 25.5\nmse = 0.2\nsamples = 9\nvalue = 2.7"] ;
633 -> 634 ;
635 [label="mse = 0.0\nsamples = 2\nvalue = 2.0"] ;
634 -> 635 ;
636 [label="mse = 0.0\nsamples = 7\nvalue = 3.0"] ;
634 -> 636 ;
637 [label="Duration <= 27.5\nmse = 0.5\nsamples = 3\nvalue = 1.3"] ;
633 -> 637 ;
638 [label="mse = 0.0\nsamples = 1\nvalue = 3.0"] ;
637 -> 638 ;
639 [label="mse = 0.0\nsamples = 2\nvalue = 1.0"] ;
637 -> 639 ;
640 [label="day <= 10.5\nmse = 0.4\nsamples = 134\nvalue = 2.9"] ;
632 -> 640 ;
641 [label="month <= 2.5\nmse = 0.5\nsamples = 38\nvalue = 2.6"] ;
640 -> 641 ;
642 [label="hour <= 10.5\nmse = 0.5\nsamples = 12\nvalue = 2.4"] ;
641 -> 642 ;
643 [label="mse = 0.0\nsamples = 2\nvalue = 1.0"] ;
642 -> 643 ;
644 [label="hour <= 13.5\nmse = 0.2\nsamples = 10\nvalue = 2.6"] ;
642 -> 644 ;
645 [label="mse = 0.0\nsamples = 4\nvalue = 3.0"] ;
644 -> 645 ;
646 [label="day <= 7.0\nmse = 0.2\nsamples = 6\nvalue = 2.3"] ;
644 -> 646 ;
647 [label="mse = 0.0\nsamples = 2\nvalue = 3.0"] ;
646 -> 647 ;
648 [label="mse = 0.0\nsamples = 4\nvalue = 2.0"] ;
646 -> 648 ;
649 [label="month <= 3.5\nmse = 0.4\nsamples = 26\nvalue = 2.8"] ;
641 -> 649 ;
650 [label="hour <= 12.0\nmse = 0.2\nsamples = 5\nvalue = 3.4"] ;
649 -> 650 ;
651 [label="Duration <= 26.5\nmse = 0.2\nsamples = 3\nvalue = 3.8"] ;
650 -> 651 ;
652 [label="mse = 0.0\nsamples = 1\nvalue = 3.0"] ;
651 -> 652 ;
653 [label="mse = 0.0\nsamples = 2\nvalue = 4.0"] ;
651 -> 653 ;
654 [label="mse = 0.0\nsamples = 2\nvalue = 3.0"] ;
650 -> 654 ;
655 [label="year <= 2015.5\nmse = 0.3\nsamples = 21\nvalue = 2.7"] ;
649 -> 655 ;
656 [label="hour <= 13.5\nmse = 0.2\nsamples = 7\nvalue = 3.0"] ;
655 -> 656 ;
657 [label="mse = 0.0\nsamples = 1\nvalue = 4.0"] ;
656 -> 657 ;
658 [label="Duration <= 28.5\nmse = 0.1\nsamples = 6\nvalue = 2.9"] ;
656 -> 658 ;
659 [label="mse = 0.0\nsamples = 4\nvalue = 3.0"] ;
658 -> 659 ;
660 [label="day <= 6.5\nmse = 0.2\nsamples = 2\nvalue = 2.5"] ;
658 -> 660 ;
661 [label="mse = 0.0\nsamples = 1\nvalue = 2.0"] ;
660 -> 661 ;
662 [label="mse = 0.0\nsamples = 1\nvalue = 3.0"] ;
660 -> 662 ;
663 [label="month <= 6.5\nmse = 0.3\nsamples = 14\nvalue = 2.5"] ;
655 -> 663 ;
664 [label="day <= 7.5\nmse = 0.3\nsamples = 12\nvalue = 2.6"] ;
663 -> 664 ;
665 [label="hour <= 17.5\nmse = 0.2\nsamples = 8\nvalue = 2.4"] ;
664 -> 665 ;
666 [label="day <= 6.5\nmse = 0.2\nsamples = 5\nvalue = 2.8"] ;
665 -> 666 ;
667 [label="mse = 0.0\nsamples = 4\nvalue = 3.0"] ;
666 -> 667 ;
668 [label="mse = 0.0\nsamples = 1\nvalue = 2.0"] ;
666 -> 668 ;
669 [label="mse = 0.0\nsamples = 3\nvalue = 2.0"] ;
665 -> 669 ;
670 [label="month <= 4.5\nmse = 0.2\nsamples = 4\nvalue = 3.2"] ;
664 -> 670 ;
671 [label="mse = 0.0\nsamples = 2\nvalue = 3.0"] ;
670 -> 671 ;
672 [label="Duration <= 26.0\nmse = 0.2\nsamples = 2\nvalue = 3.5"] ;
670 -> 672 ;
673 [label="mse = 0.0\nsamples = 1\nvalue = 3.0"] ;
672 -> 673 ;
674 [label="mse = 0.0\nsamples = 1\nvalue = 4.0"] ;
672 -> 674 ;
675 [label="mse = 0.0\nsamples = 2\nvalue = 2.0"] ;
663 -> 675 ;
676 [label="year <= 2014.5\nmse = 0.3\nsamples = 96\nvalue = 3.0"] ;
640 -> 676 ;
677 [label="Duration <= 26.5\nmse = 0.2\nsamples = 10\nvalue = 3.4"] ;
676 -> 677 ;
678 [label="mse = 0.0\nsamples = 3\nvalue = 4.0"] ;
677 -> 678 ;
679 [label="mse = 0.0\nsamples = 7\nvalue = 3.0"] ;
677 -> 679 ;
680 [label="year <= 2015.5\nmse = 0.3\nsamples = 86\nvalue = 2.9"] ;
676 -> 680 ;
681 [label="hour <= 8.5\nmse = 0.3\nsamples = 26\nvalue = 2.7"] ;
680 -> 681 ;
682 [label="Duration <= 27.0\nmse = 0.2\nsamples = 2\nvalue = 3.5"] ;
681 -> 682 ;
683 [label="mse = 0.0\nsamples = 1\nvalue = 3.0"] ;
682 -> 683 ;
684 [label="mse = 0.0\nsamples = 1\nvalue = 4.0"] ;
682 -> 684 ;
685 [label="day <= 24.5\nmse = 0.2\nsamples = 24\nvalue = 2.6"] ;
681 -> 685 ;
686 [label="month <= 3.5\nmse = 0.1\nsamples = 16\nvalue = 2.9"] ;
685 -> 686 ;
687 [label="month <= 2.5\nmse = 0.2\nsamples = 3\nvalue = 2.7"] ;
686 -> 687 ;
688 [label="mse = 0.0\nsamples = 2\nvalue = 3.0"] ;
687 -> 688 ;
689 [label="mse = 0.0\nsamples = 1\nvalue = 2.0"] ;
687 -> 689 ;
690 [label="hour <= 20.0\nmse = 0.1\nsamples = 13\nvalue = 2.9"] ;
686 -> 690 ;
691 [label="mse = 0.0\nsamples = 11\nvalue = 3.0"] ;
690 -> 691 ;
692 [label="month <= 6.5\nmse = 0.2\nsamples = 2\nvalue = 2.7"] ;
690 -> 692 ;
693 [label="mse = 0.0\nsamples = 1\nvalue = 3.0"] ;
692 -> 693 ;
694 [label="mse = 0.0\nsamples = 1\nvalue = 2.0"] ;
692 -> 694 ;
695 [label="hour <= 14.0\nmse = 0.2\nsamples = 8\nvalue = 2.3"] ;
685 -> 695 ;
696 [label="Duration <= 27.0\nmse = 0.2\nsamples = 5\nvalue = 2.6"] ;
695 -> 696 ;
697 [label="mse = 0.0\nsamples = 2\nvalue = 2.0"] ;
696 -> 697 ;
698 [label="day <= 28.5\nmse = 0.1\nsamples = 3\nvalue = 2.8"] ;
696 -> 698 ;
699 [label="hour <= 12.0\nmse = 0.2\nsamples = 2\nvalue = 2.7"] ;
698 -> 699 ;
700 [label="mse = 0.0\nsamples = 1\nvalue = 3.0"] ;
699 -> 700 ;
701 [label="mse = 0.0\nsamples = 1\nvalue = 2.0"] ;
699 -> 701 ;
702 [label="mse = 0.0\nsamples = 1\nvalue = 3.0"] ;
698 -> 702 ;
703 [label="mse = 0.0\nsamples = 3\nvalue = 2.0"] ;
695 -> 703 ;
704 [label="hour <= 19.5\nmse = 0.3\nsamples = 60\nvalue = 3.0"] ;
680 -> 704 ;
705 [label="Duration <= 26.5\nmse = 0.3\nsamples = 55\nvalue = 2.9"] ;
704 -> 705 ;
706 [label="Duration <= 25.5\nmse = 0.2\nsamples = 22\nvalue = 2.8"] ;
705 -> 706 ;
707 [label="month <= 3.5\nmse = 0.1\nsamples = 14\nvalue = 2.9"] ;
706 -> 707 ;
708 [label="month <= 2.5\nmse = 0.2\nsamples = 4\nvalue = 2.8"] ;
707 -> 708 ;
709 [label="mse = 0.0\nsamples = 3\nvalue = 3.0"] ;
708 -> 709 ;
710 [label="mse = 0.0\nsamples = 1\nvalue = 2.0"] ;
708 -> 710 ;
711 [label="mse = 0.0\nsamples = 10\nvalue = 3.0"] ;
707 -> 711 ;
712 [label="hour <= 9.5\nmse = 0.2\nsamples = 8\nvalue = 2.5"] ;
706 -> 712 ;
713 [label="mse = 0.0\nsamples = 2\nvalue = 3.0"] ;
712 -> 713 ;
714 [label="hour <= 13.5\nmse = 0.2\nsamples = 6\nvalue = 2.3"] ;
712 -> 714 ;
715 [label="mse = 0.0\nsamples = 2\nvalue = 2.0"] ;
714 -> 715 ;
716 [label="year <= 2017.0\nmse = 0.2\nsamples = 4\nvalue = 2.6"] ;
714 -> 716 ;
717 [label="mse = 0.0\nsamples = 2\nvalue = 3.0"] ;
716 -> 717 ;
718 [label="mse = 0.0\nsamples = 2\nvalue = 2.0"] ;
716 -> 718 ;
719 [label="day <= 12.0\nmse = 0.3\nsamples = 33\nvalue = 3.1"] ;
705 -> 719 ;
720 [label="mse = 0.0\nsamples = 1\nvalue = 4.0"] ;
719 -> 720 ;
721 [label="day <= 13.5\nmse = 0.3\nsamples = 32\nvalue = 3.0"] ;
719 -> 721 ;
722 [label="month <= 6.0\nmse = 0.2\nsamples = 2\nvalue = 2.3"] ;
721 -> 722 ;
723 [label="mse = 0.0\nsamples = 1\nvalue = 2.0"] ;
722 -> 723 ;
724 [label="mse = 0.0\nsamples = 1\nvalue = 3.0"] ;
722 -> 724 ;
725 [label="hour <= 8.5\nmse = 0.2\nsamples = 30\nvalue = 3.1"] ;
721 -> 725 ;
726 [label="hour <= 7.5\nmse = 0.2\nsamples = 2\nvalue = 2.5"] ;
725 -> 726 ;
727 [label="mse = 0.0\nsamples = 1\nvalue = 3.0"] ;
726 -> 727 ;
728 [label="mse = 0.0\nsamples = 1\nvalue = 2.0"] ;
726 -> 728 ;
729 [label="hour <= 9.5\nmse = 0.2\nsamples = 28\nvalue = 3.1"] ;
725 -> 729 ;
730 [label="mse = 0.0\nsamples = 2\nvalue = 4.0"] ;
729 -> 730 ;
731 [label="hour <= 10.5\nmse = 0.2\nsamples = 26\nvalue = 3.1"] ;
729 -> 731 ;
732 [label="mse = 0.0\nsamples = 1\nvalue = 2.0"] ;
731 -> 732 ;
733 [label="hour <= 11.5\nmse = 0.1\nsamples = 25\nvalue = 3.1"] ;
731 -> 733 ;
734 [label="mse = 0.0\nsamples = 1\nvalue = 4.0"] ;
733 -> 734 ;
735 [label="day <= 23.5\nmse = 0.1\nsamples = 24\nvalue = 3.1"] ;
733 -> 735 ;
736 [label="day <= 19.0\nmse = 0.1\nsamples = 13\nvalue = 3.2"] ;
735 -> 736 ;
737 [label="mse = 0.0\nsamples = 6\nvalue = 3.0"] ;
736 -> 737 ;
738 [label="Duration <= 28.5\nmse = 0.2\nsamples = 7\nvalue = 3.4"] ;
736 -> 738 ;
739 [label="month <= 6.5\nmse = 0.2\nsamples = 6\nvalue = 3.3"] ;
738 -> 739 ;
740 [label="day <= 22.0\nmse = 0.2\nsamples = 4\nvalue = 3.5"] ;
739 -> 740 ;
741 [label="Duration <= 27.5\nmse = 0.2\nsamples = 3\nvalue = 3.3"] ;
740 -> 741 ;
742 [label="mse = 0.0\nsamples = 2\nvalue = 3.0"] ;
741 -> 742 ;
743 [label="mse = 0.0\nsamples = 1\nvalue = 4.0"] ;
741 -> 743 ;
744 [label="mse = 0.0\nsamples = 1\nvalue = 4.0"] ;
740 -> 744 ;
745 [label="mse = 0.0\nsamples = 2\nvalue = 3.0"] ;
739 -> 745 ;
746 [label="mse = 0.0\nsamples = 1\nvalue = 4.0"] ;
738 -> 746 ;
747 [label="hour <= 13.5\nmse = 0.1\nsamples = 11\nvalue = 2.9"] ;
735 -> 747 ;
748 [label="hour <= 12.5\nmse = 0.2\nsamples = 3\nvalue = 2.7"] ;
747 -> 748 ;
749 [label="mse = 0.0\nsamples = 2\nvalue = 3.0"] ;
748 -> 749 ;
750 [label="mse = 0.0\nsamples = 1\nvalue = 2.0"] ;
748 -> 750 ;
751 [label="mse = 0.0\nsamples = 8\nvalue = 3.0"] ;
747 -> 751 ;
752 [label="hour <= 20.5\nmse = 0.2\nsamples = 5\nvalue = 3.4"] ;
704 -> 752 ;
753 [label="day <= 15.0\nmse = 0.2\nsamples = 3\nvalue = 3.8"] ;
752 -> 753 ;
754 [label="mse = 0.0\nsamples = 1\nvalue = 3.0"] ;
753 -> 754 ;
755 [label="mse = 0.0\nsamples = 2\nvalue = 4.0"] ;
753 -> 755 ;
756 [label="mse = 0.0\nsamples = 2\nvalue = 3.0"] ;
752 -> 756 ;
757 [label="month <= 1.5\nmse = 0.7\nsamples = 125\nvalue = 3.0"] ;
631 -> 757 ;
758 [label="day <= 22.5\nmse = 0.8\nsamples = 19\nvalue = 3.4"] ;
757 -> 758 ;
759 [label="day <= 6.0\nmse = 0.2\nsamples = 9\nvalue = 2.9"] ;
758 -> 759 ;
760 [label="mse = 0.0\nsamples = 1\nvalue = 2.0"] ;
759 -> 760 ;
761 [label="Duration <= 30.5\nmse = 0.1\nsamples = 8\nvalue = 3.1"] ;
759 -> 761 ;
762 [label="year <= 2015.5\nmse = 0.2\nsamples = 2\nvalue = 3.5"] ;
761 -> 762 ;
763 [label="mse = 0.0\nsamples = 1\nvalue = 4.0"] ;
762 -> 763 ;
764 [label="mse = 0.0\nsamples = 1\nvalue = 3.0"] ;
762 -> 764 ;
765 [label="mse = 0.0\nsamples = 6\nvalue = 3.0"] ;
761 -> 765 ;
766 [label="hour <= 11.5\nmse = 0.9\nsamples = 10\nvalue = 4.0"] ;
758 -> 766 ;
767 [label="year <= 2017.0\nmse = 1.0\nsamples = 4\nvalue = 4.8"] ;
766 -> 767 ;
768 [label="mse = 0.0\nsamples = 3\nvalue = 4.0"] ;
767 -> 768 ;
769 [label="mse = 0.0\nsamples = 1\nvalue = 6.0"] ;
767 -> 769 ;
770 [label="year <= 2016.0\nmse = 0.2\nsamples = 6\nvalue = 3.5"] ;
766 -> 770 ;
771 [label="day <= 28.5\nmse = 0.2\nsamples = 4\nvalue = 3.8"] ;
770 -> 771 ;
772 [label="mse = 0.0\nsamples = 3\nvalue = 4.0"] ;
771 -> 772 ;
773 [label="mse = 0.0\nsamples = 1\nvalue = 3.0"] ;
771 -> 773 ;
774 [label="mse = 0.0\nsamples = 2\nvalue = 3.0"] ;
770 -> 774 ;
775 [label="month <= 5.5\nmse = 0.6\nsamples = 106\nvalue = 2.9"] ;
757 -> 775 ;
776 [label="day <= 25.5\nmse = 0.7\nsamples = 70\nvalue = 3.0"] ;
775 -> 776 ;
777 [label="hour <= 17.5\nmse = 0.5\nsamples = 60\nvalue = 2.9"] ;
776 -> 777 ;
778 [label="year <= 2017.5\nmse = 0.5\nsamples = 51\nvalue = 2.9"] ;
777 -> 778 ;
779 [label="day <= 16.5\nmse = 0.4\nsamples = 41\nvalue = 3.0"] ;
778 -> 779 ;
780 [label="day <= 5.5\nmse = 0.4\nsamples = 26\nvalue = 2.9"] ;
779 -> 780 ;
781 [label="hour <= 11.5\nmse = 0.6\nsamples = 4\nvalue = 3.5"] ;
780 -> 781 ;
782 [label="day <= 4.5\nmse = 0.2\nsamples = 2\nvalue = 2.5"] ;
781 -> 782 ;
783 [label="mse = 0.0\nsamples = 1\nvalue = 2.0"] ;
782 -> 783 ;
784 [label="mse = 0.0\nsamples = 1\nvalue = 3.0"] ;
782 -> 784 ;
785 [label="mse = 0.0\nsamples = 2\nvalue = 4.0"] ;
781 -> 785 ;
786 [label="Duration <= 30.5\nmse = 0.3\nsamples = 22\nvalue = 2.8"] ;
780 -> 786 ;
787 [label="month <= 4.5\nmse = 0.6\nsamples = 4\nvalue = 2.3"] ;
786 -> 787 ;
788 [label="month <= 3.0\nmse = 0.2\nsamples = 2\nvalue = 1.7"] ;
787 -> 788 ;
789 [label="mse = 0.0\nsamples = 1\nvalue = 2.0"] ;
788 -> 789 ;
790 [label="mse = 0.0\nsamples = 1\nvalue = 1.0"] ;
788 -> 790 ;
791 [label="mse = 0.0\nsamples = 2\nvalue = 3.0"] ;
787 -> 791 ;
792 [label="day <= 6.5\nmse = 0.2\nsamples = 18\nvalue = 2.8"] ;
786 -> 792 ;
793 [label="mse = 0.0\nsamples = 1\nvalue = 2.0"] ;
792 -> 793 ;
794 [label="month <= 4.5\nmse = 0.2\nsamples = 17\nvalue = 2.9"] ;
792 -> 794 ;
795 [label="year <= 2014.5\nmse = 0.1\nsamples = 13\nvalue = 3.0"] ;
794 -> 795 ;
796 [label="day <= 11.5\nmse = 0.2\nsamples = 6\nvalue = 2.8"] ;
795 -> 796 ;
797 [label="mse = 0.0\nsamples = 2\nvalue = 2.0"] ;
796 -> 797 ;
798 [label="mse = 0.0\nsamples = 4\nvalue = 3.0"] ;
796 -> 798 ;
799 [label="day <= 12.5\nmse = 0.1\nsamples = 7\nvalue = 3.1"] ;
795 -> 799 ;
800 [label="mse = 0.0\nsamples = 6\nvalue = 3.0"] ;
799 -> 800 ;
801 [label="mse = 0.0\nsamples = 1\nvalue = 4.0"] ;
799 -> 801 ;
802 [label="year <= 2014.5\nmse = 0.2\nsamples = 4\nvalue = 2.6"] ;
794 -> 802 ;
803 [label="mse = 0.0\nsamples = 2\nvalue = 3.0"] ;
802 -> 803 ;
804 [label="mse = 0.0\nsamples = 2\nvalue = 2.0"] ;
802 -> 804 ;
805 [label="day <= 19.5\nmse = 0.3\nsamples = 15\nvalue = 3.3"] ;
779 -> 805 ;
806 [label="year <= 2014.5\nmse = 0.2\nsamples = 4\nvalue = 3.8"] ;
805 -> 806 ;
807 [label="mse = 0.0\nsamples = 1\nvalue = 3.0"] ;
806 -> 807 ;
808 [label="mse = 0.0\nsamples = 3\nvalue = 4.0"] ;
806 -> 808 ;
809 [label="hour <= 13.5\nmse = 0.2\nsamples = 11\nvalue = 3.1"] ;
805 -> 809 ;
810 [label="Duration <= 32.5\nmse = 0.2\nsamples = 9\nvalue = 3.2"] ;
809 -> 810 ;
811 [label="year <= 2014.5\nmse = 0.2\nsamples = 3\nvalue = 3.5"] ;
810 -> 811 ;
812 [label="mse = 0.0\nsamples = 1\nvalue = 3.0"] ;
811 -> 812 ;
813 [label="mse = 0.0\nsamples = 2\nvalue = 4.0"] ;
811 -> 813 ;
814 [label="month <= 3.5\nmse = 0.1\nsamples = 6\nvalue = 3.1"] ;
810 -> 814 ;
815 [label="day <= 24.5\nmse = 0.2\nsamples = 2\nvalue = 3.5"] ;
814 -> 815 ;
816 [label="mse = 0.0\nsamples = 1\nvalue = 4.0"] ;
815 -> 816 ;
817 [label="mse = 0.0\nsamples = 1\nvalue = 3.0"] ;
815 -> 817 ;
818 [label="mse = 0.0\nsamples = 4\nvalue = 3.0"] ;
814 -> 818 ;
819 [label="month <= 4.0\nmse = 0.2\nsamples = 2\nvalue = 2.5"] ;
809 -> 819 ;
820 [label="mse = 0.0\nsamples = 1\nvalue = 3.0"] ;
819 -> 820 ;
821 [label="mse = 0.0\nsamples = 1\nvalue = 2.0"] ;
819 -> 821 ;
822 [label="month <= 3.5\nmse = 0.5\nsamples = 10\nvalue = 2.5"] ;
778 -> 822 ;
823 [label="day <= 17.0\nmse = 0.4\nsamples = 5\nvalue = 2.0"] ;
822 -> 823 ;
824 [label="hour <= 12.0\nmse = 0.2\nsamples = 2\nvalue = 1.3"] ;
823 -> 824 ;
825 [label="mse = 0.0\nsamples = 1\nvalue = 2.0"] ;
824 -> 825 ;
826 [label="mse = 0.0\nsamples = 1\nvalue = 1.0"] ;
824 -> 826 ;
827 [label="hour <= 15.5\nmse = 0.2\nsamples = 3\nvalue = 2.3"] ;
823 -> 827 ;
828 [label="mse = 0.0\nsamples = 1\nvalue = 3.0"] ;
827 -> 828 ;
829 [label="mse = 0.0\nsamples = 2\nvalue = 2.0"] ;
827 -> 829 ;
830 [label="mse = 0.0\nsamples = 5\nvalue = 3.0"] ;
822 -> 830 ;
831 [label="day <= 6.5\nmse = 0.4\nsamples = 9\nvalue = 3.3"] ;
777 -> 831 ;
832 [label="mse = 0.0\nsamples = 1\nvalue = 5.0"] ;
831 -> 832 ;
833 [label="year <= 2017.5\nmse = 0.1\nsamples = 8\nvalue = 3.2"] ;
831 -> 833 ;
834 [label="mse = 0.0\nsamples = 6\nvalue = 3.0"] ;
833 -> 834 ;
835 [label="day <= 24.0\nmse = 0.2\nsamples = 2\nvalue = 3.7"] ;
833 -> 835 ;
836 [label="mse = 0.0\nsamples = 1\nvalue = 3.0"] ;
835 -> 836 ;
837 [label="mse = 0.0\nsamples = 1\nvalue = 4.0"] ;
835 -> 837 ;
838 [label="year <= 2013.5\nmse = 1.8\nsamples = 10\nvalue = 3.6"] ;
776 -> 838 ;
839 [label="day <= 28.5\nmse = 2.9\nsamples = 3\nvalue = 5.3"] ;
838 -> 839 ;
840 [label="Duration <= 32.5\nmse = 0.2\nsamples = 2\nvalue = 6.5"] ;
839 -> 840 ;
841 [label="mse = 0.0\nsamples = 1\nvalue = 7.0"] ;
840 -> 841 ;
842 [label="mse = 0.0\nsamples = 1\nvalue = 6.0"] ;
840 -> 842 ;
843 [label="mse = 0.0\nsamples = 1\nvalue = 3.0"] ;
839 -> 843 ;
844 [label="hour <= 15.0\nmse = 0.3\nsamples = 7\nvalue = 3.1"] ;
838 -> 844 ;
845 [label="year <= 2015.5\nmse = 0.2\nsamples = 3\nvalue = 3.7"] ;
844 -> 845 ;
846 [label="mse = 0.0\nsamples = 2\nvalue = 4.0"] ;
845 -> 846 ;
847 [label="mse = 0.0\nsamples = 1\nvalue = 3.0"] ;
845 -> 847 ;
848 [label="day <= 29.5\nmse = 0.1\nsamples = 4\nvalue = 2.9"] ;
844 -> 848 ;
849 [label="mse = 0.0\nsamples = 3\nvalue = 3.0"] ;
848 -> 849 ;
850 [label="mse = 0.0\nsamples = 1\nvalue = 2.0"] ;
848 -> 850 ;
851 [label="Duration <= 30.5\nmse = 0.5\nsamples = 36\nvalue = 2.8"] ;
775 -> 851 ;
852 [label="hour <= 12.0\nmse = 1.3\nsamples = 5\nvalue = 3.7"] ;
851 -> 852 ;
853 [label="mse = 0.0\nsamples = 1\nvalue = 6.0"] ;
852 -> 853 ;
854 [label="hour <= 17.0\nmse = 0.6\nsamples = 4\nvalue = 3.3"] ;
852 -> 854 ;
855 [label="day <= 21.5\nmse = 0.5\nsamples = 3\nvalue = 3.0"] ;
854 -> 855 ;
856 [label="month <= 6.5\nmse = 0.2\nsamples = 2\nvalue = 3.3"] ;
855 -> 856 ;
857 [label="mse = 0.0\nsamples = 1\nvalue = 4.0"] ;
856 -> 857 ;
858 [label="mse = 0.0\nsamples = 1\nvalue = 3.0"] ;
856 -> 858 ;
859 [label="mse = 0.0\nsamples = 1\nvalue = 2.0"] ;
855 -> 859 ;
860 [label="mse = 0.0\nsamples = 1\nvalue = 4.0"] ;
854 -> 860 ;
861 [label="year <= 2016.5\nmse = 0.3\nsamples = 31\nvalue = 2.6"] ;
851 -> 861 ;
862 [label="day <= 9.5\nmse = 0.2\nsamples = 27\nvalue = 2.6"] ;
861 -> 862 ;
863 [label="mse = 0.0\nsamples = 4\nvalue = 3.0"] ;
862 -> 863 ;
864 [label="day <= 30.5\nmse = 0.2\nsamples = 23\nvalue = 2.5"] ;
862 -> 864 ;
865 [label="day <= 27.5\nmse = 0.2\nsamples = 22\nvalue = 2.6"] ;
864 -> 865 ;
866 [label="hour <= 11.5\nmse = 0.2\nsamples = 17\nvalue = 2.5"] ;
865 -> 866 ;
867 [label="Duration <= 31.5\nmse = 0.2\nsamples = 5\nvalue = 2.8"] ;
866 -> 867 ;
868 [label="mse = 0.0\nsamples = 1\nvalue = 2.0"] ;
867 -> 868 ;
869 [label="mse = 0.0\nsamples = 4\nvalue = 3.0"] ;
867 -> 869 ;
870 [label="hour <= 13.5\nmse = 0.2\nsamples = 12\nvalue = 2.3"] ;
866 -> 870 ;
871 [label="mse = 0.0\nsamples = 3\nvalue = 2.0"] ;
870 -> 871 ;
872 [label="month <= 6.5\nmse = 0.2\nsamples = 9\nvalue = 2.5"] ;
870 -> 872 ;
873 [label="mse = 0.0\nsamples = 4\nvalue = 3.0"] ;
872 -> 873 ;
874 [label="hour <= 17.0\nmse = 0.2\nsamples = 5\nvalue = 2.3"] ;
872 -> 874 ;
875 [label="Duration <= 32.5\nmse = 0.2\nsamples = 3\nvalue = 2.6"] ;
874 -> 875 ;
876 [label="mse = 0.0\nsamples = 2\nvalue = 3.0"] ;
875 -> 876 ;
877 [label="mse = 0.0\nsamples = 1\nvalue = 2.0"] ;
875 -> 877 ;
878 [label="mse = 0.0\nsamples = 2\nvalue = 2.0"] ;
874 -> 878 ;
879 [label="mse = 0.0\nsamples = 5\nvalue = 3.0"] ;
865 -> 879 ;
880 [label="mse = 0.0\nsamples = 1\nvalue = 2.0"] ;
864 -> 880 ;
881 [label="hour <= 10.5\nmse = 0.2\nsamples = 4\nvalue = 3.2"] ;
861 -> 881 ;
882 [label="mse = 0.0\nsamples = 1\nvalue = 4.0"] ;
881 -> 882 ;
883 [label="mse = 0.0\nsamples = 3\nvalue = 3.0"] ;
881 -> 883 ;
884 [label="month <= 2.5\nmse = 0.7\nsamples = 29\nvalue = 3.3"] ;
630 -> 884 ;
885 [label="year <= 2014.5\nmse = 0.6\nsamples = 11\nvalue = 3.6"] ;
884 -> 885 ;
886 [label="Duration <= 30.5\nmse = 0.1\nsamples = 4\nvalue = 3.1"] ;
885 -> 886 ;
887 [label="mse = 0.0\nsamples = 1\nvalue = 4.0"] ;
886 -> 887 ;
888 [label="mse = 0.0\nsamples = 3\nvalue = 3.0"] ;
886 -> 888 ;
889 [label="Duration <= 31.0\nmse = 0.6\nsamples = 7\nvalue = 3.9"] ;
885 -> 889 ;
890 [label="month <= 1.5\nmse = 0.4\nsamples = 6\nvalue = 3.7"] ;
889 -> 890 ;
891 [label="mse = 0.0\nsamples = 1\nvalue = 3.0"] ;
890 -> 891 ;
892 [label="Duration <= 27.5\nmse = 0.4\nsamples = 5\nvalue = 3.9"] ;
890 -> 892 ;
893 [label="mse = 0.0\nsamples = 1\nvalue = 3.0"] ;
892 -> 893 ;
894 [label="Duration <= 29.5\nmse = 0.3\nsamples = 4\nvalue = 4.0"] ;
892 -> 894 ;
895 [label="year <= 2017.0\nmse = 0.2\nsamples = 3\nvalue = 4.2"] ;
894 -> 895 ;
896 [label="mse = 0.0\nsamples = 2\nvalue = 4.0"] ;
895 -> 896 ;
897 [label="mse = 0.0\nsamples = 1\nvalue = 5.0"] ;
895 -> 897 ;
898 [label="mse = 0.0\nsamples = 1\nvalue = 3.0"] ;
894 -> 898 ;
899 [label="mse = 0.0\nsamples = 1\nvalue = 5.0"] ;
889 -> 899 ;
900 [label="day <= 29.5\nmse = 0.7\nsamples = 18\nvalue = 3.1"] ;
884 -> 900 ;
901 [label="year <= 2015.5\nmse = 0.5\nsamples = 16\nvalue = 2.9"] ;
900 -> 901 ;
902 [label="day <= 27.5\nmse = 0.8\nsamples = 7\nvalue = 2.5"] ;
901 -> 902 ;
903 [label="month <= 3.5\nmse = 0.5\nsamples = 6\nvalue = 2.7"] ;
902 -> 903 ;
904 [label="day <= 10.5\nmse = 0.2\nsamples = 2\nvalue = 3.5"] ;
903 -> 904 ;
905 [label="mse = 0.0\nsamples = 1\nvalue = 3.0"] ;
904 -> 905 ;
906 [label="mse = 0.0\nsamples = 1\nvalue = 4.0"] ;
904 -> 906 ;
907 [label="year <= 2014.0\nmse = 0.2\nsamples = 4\nvalue = 2.4"] ;
903 -> 907 ;
908 [label="mse = 0.0\nsamples = 1\nvalue = 2.0"] ;
907 -> 908 ;
909 [label="Duration <= 27.5\nmse = 0.2\nsamples = 3\nvalue = 2.7"] ;
907 -> 909 ;
910 [label="hour <= 22.5\nmse = 0.2\nsamples = 2\nvalue = 2.5"] ;
909 -> 910 ;
911 [label="mse = 0.0\nsamples = 1\nvalue = 3.0"] ;
910 -> 911 ;
912 [label="mse = 0.0\nsamples = 1\nvalue = 2.0"] ;
910 -> 912 ;
913 [label="mse = 0.0\nsamples = 1\nvalue = 3.0"] ;
909 -> 913 ;
914 [label="mse = 0.0\nsamples = 1\nvalue = 1.0"] ;
902 -> 914 ;
915 [label="day <= 17.5\nmse = 0.1\nsamples = 9\nvalue = 3.2"] ;
901 -> 915 ;
916 [label="mse = 0.0\nsamples = 3\nvalue = 3.0"] ;
915 -> 916 ;
917 [label="month <= 5.5\nmse = 0.2\nsamples = 6\nvalue = 3.3"] ;
915 -> 917 ;
918 [label="mse = 0.0\nsamples = 3\nvalue = 3.0"] ;
917 -> 918 ;
919 [label="Duration <= 30.0\nmse = 0.2\nsamples = 3\nvalue = 3.7"] ;
917 -> 919 ;
920 [label="mse = 0.0\nsamples = 2\nvalue = 4.0"] ;
919 -> 920 ;
921 [label="mse = 0.0\nsamples = 1\nvalue = 3.0"] ;
919 -> 921 ;
922 [label="year <= 2014.0\nmse = 1.0\nsamples = 2\nvalue = 4.0"] ;
900 -> 922 ;
923 [label="mse = 0.0\nsamples = 1\nvalue = 5.0"] ;
922 -> 923 ;
924 [label="mse = 0.0\nsamples = 1\nvalue = 3.0"] ;
922 -> 924 ;
925 [label="year <= 2016.5\nmse = 0.9\nsamples = 233\nvalue = 3.3"] ;
559 -> 925 ;
926 [label="year <= 2012.5\nmse = 0.8\nsamples = 178\nvalue = 3.1"] ;
925 -> 926 ;
927 [label="day <= 11.5\nmse = 0.9\nsamples = 24\nvalue = 3.9"] ;
926 -> 927 ;
928 [label="hour <= 12.0\nmse = 0.7\nsamples = 7\nvalue = 3.1"] ;
927 -> 928 ;
929 [label="mse = 0.0\nsamples = 1\nvalue = 5.0"] ;
928 -> 929 ;
930 [label="day <= 8.0\nmse = 0.3\nsamples = 6\nvalue = 2.9"] ;
928 -> 930 ;
931 [label="month <= 11.5\nmse = 0.1\nsamples = 5\nvalue = 3.1"] ;
930 -> 931 ;
932 [label="mse = 0.0\nsamples = 4\nvalue = 3.0"] ;
931 -> 932 ;
933 [label="mse = 0.0\nsamples = 1\nvalue = 4.0"] ;
931 -> 933 ;
934 [label="mse = 0.0\nsamples = 1\nvalue = 2.0"] ;
930 -> 934 ;
935 [label="day <= 25.5\nmse = 0.6\nsamples = 17\nvalue = 4.3"] ;
927 -> 935 ;
936 [label="hour <= 21.0\nmse = 0.5\nsamples = 11\nvalue = 4.7"] ;
935 -> 936 ;
937 [label="Duration <= 29.5\nmse = 0.2\nsamples = 9\nvalue = 5.0"] ;
936 -> 937 ;
938 [label="mse = 0.0\nsamples = 1\nvalue = 6.0"] ;
937 -> 938 ;
939 [label="hour <= 12.0\nmse = 0.1\nsamples = 8\nvalue = 4.9"] ;
937 -> 939 ;
940 [label="mse = 0.0\nsamples = 5\nvalue = 5.0"] ;
939 -> 940 ;
941 [label="Duration <= 31.5\nmse = 0.2\nsamples = 3\nvalue = 4.7"] ;
939 -> 941 ;
942 [label="mse = 0.0\nsamples = 1\nvalue = 4.0"] ;
941 -> 942 ;
943 [label="mse = 0.0\nsamples = 2\nvalue = 5.0"] ;
941 -> 943 ;
944 [label="day <= 17.0\nmse = 0.2\nsamples = 2\nvalue = 3.7"] ;
936 -> 944 ;
945 [label="mse = 0.0\nsamples = 1\nvalue = 3.0"] ;
944 -> 945 ;
946 [label="mse = 0.0\nsamples = 1\nvalue = 4.0"] ;
944 -> 946 ;
947 [label="day <= 27.0\nmse = 0.2\nsamples = 6\nvalue = 3.8"] ;
935 -> 947 ;
948 [label="mse = 0.0\nsamples = 1\nvalue = 3.0"] ;
947 -> 948 ;
949 [label="hour <= 10.5\nmse = 0.1\nsamples = 5\nvalue = 3.9"] ;
947 -> 949 ;
950 [label="mse = 0.0\nsamples = 1\nvalue = 3.0"] ;
949 -> 950 ;
951 [label="mse = 0.0\nsamples = 4\nvalue = 4.0"] ;
949 -> 951 ;
952 [label="day <= 29.5\nmse = 0.6\nsamples = 154\nvalue = 3.0"] ;
926 -> 952 ;
953 [label="hour <= 12.5\nmse = 0.6\nsamples = 148\nvalue = 3.0"] ;
952 -> 953 ;
954 [label="Duration <= 33.5\nmse = 0.4\nsamples = 57\nvalue = 2.7"] ;
953 -> 954 ;
955 [label="Duration <= 29.5\nmse = 0.4\nsamples = 51\nvalue = 2.8"] ;
954 -> 955 ;
956 [label="year <= 2015.5\nmse = 0.3\nsamples = 31\nvalue = 2.6"] ;
955 -> 956 ;
957 [label="month <= 10.5\nmse = 0.4\nsamples = 17\nvalue = 2.3"] ;
956 -> 957 ;
958 [label="year <= 2013.5\nmse = 0.5\nsamples = 10\nvalue = 2.1"] ;
957 -> 958 ;
959 [label="month <= 9.5\nmse = 0.2\nsamples = 4\nvalue = 1.5"] ;
958 -> 959 ;
960 [label="hour <= 9.0\nmse = 0.2\nsamples = 3\nvalue = 1.7"] ;
959 -> 960 ;
961 [label="mse = 0.0\nsamples = 1\nvalue = 1.0"] ;
960 -> 961 ;
962 [label="mse = 0.0\nsamples = 2\nvalue = 2.0"] ;
960 -> 962 ;
963 [label="mse = 0.0\nsamples = 1\nvalue = 1.0"] ;
959 -> 963 ;
964 [label="year <= 2014.5\nmse = 0.2\nsamples = 6\nvalue = 2.5"] ;
958 -> 964 ;
965 [label="mse = 0.0\nsamples = 3\nvalue = 3.0"] ;
964 -> 965 ;
966 [label="mse = 0.0\nsamples = 3\nvalue = 2.0"] ;
964 -> 966 ;
967 [label="hour <= 10.5\nmse = 0.2\nsamples = 7\nvalue = 2.5"] ;
957 -> 967 ;
968 [label="mse = 0.0\nsamples = 3\nvalue = 3.0"] ;
967 -> 968 ;
969 [label="hour <= 11.5\nmse = 0.2\nsamples = 4\nvalue = 2.2"] ;
967 -> 969 ;
970 [label="day <= 11.5\nmse = 0.2\nsamples = 2\nvalue = 2.5"] ;
969 -> 970 ;
971 [label="mse = 0.0\nsamples = 1\nvalue = 3.0"] ;
970 -> 971 ;
972 [label="mse = 0.0\nsamples = 1\nvalue = 2.0"] ;
970 -> 972 ;
973 [label="mse = 0.0\nsamples = 2\nvalue = 2.0"] ;
969 -> 973 ;
974 [label="hour <= 9.5\nmse = 0.2\nsamples = 14\nvalue = 2.8"] ;
956 -> 974 ;
975 [label="mse = 0.0\nsamples = 1\nvalue = 2.0"] ;
974 -> 975 ;
976 [label="Duration <= 28.5\nmse = 0.1\nsamples = 13\nvalue = 2.9"] ;
974 -> 976 ;
977 [label="mse = 0.0\nsamples = 11\nvalue = 3.0"] ;
976 -> 977 ;
978 [label="day <= 9.5\nmse = 0.2\nsamples = 2\nvalue = 2.3"] ;
976 -> 978 ;
979 [label="mse = 0.0\nsamples = 1\nvalue = 3.0"] ;
978 -> 979 ;
980 [label="mse = 0.0\nsamples = 1\nvalue = 2.0"] ;
978 -> 980 ;
981 [label="year <= 2015.5\nmse = 0.2\nsamples = 20\nvalue = 3.1"] ;
955 -> 981 ;
982 [label="day <= 4.0\nmse = 0.1\nsamples = 16\nvalue = 3.0"] ;
981 -> 982 ;
983 [label="mse = 0.0\nsamples = 1\nvalue = 2.0"] ;
982 -> 983 ;
984 [label="month <= 9.5\nmse = 0.1\nsamples = 15\nvalue = 3.0"] ;
982 -> 984 ;
985 [label="Duration <= 32.5\nmse = 0.1\nsamples = 6\nvalue = 3.1"] ;
984 -> 985 ;
986 [label="mse = 0.0\nsamples = 5\nvalue = 3.0"] ;
985 -> 986 ;
987 [label="mse = 0.0\nsamples = 1\nvalue = 4.0"] ;
985 -> 987 ;
988 [label="year <= 2013.5\nmse = 0.1\nsamples = 9\nvalue = 2.9"] ;
984 -> 988 ;
989 [label="Duration <= 32.5\nmse = 0.2\nsamples = 2\nvalue = 2.8"] ;
988 -> 989 ;
990 [label="mse = 0.0\nsamples = 1\nvalue = 3.0"] ;
989 -> 990 ;
991 [label="mse = 0.0\nsamples = 1\nvalue = 2.0"] ;
989 -> 991 ;
992 [label="mse = 0.0\nsamples = 7\nvalue = 3.0"] ;
988 -> 992 ;
993 [label="day <= 22.5\nmse = 0.1\nsamples = 4\nvalue = 3.8"] ;
981 -> 993 ;
994 [label="mse = 0.0\nsamples = 2\nvalue = 4.0"] ;
993 -> 994 ;
995 [label="day <= 27.5\nmse = 0.2\nsamples = 2\nvalue = 3.5"] ;
993 -> 995 ;
996 [label="mse = 0.0\nsamples = 1\nvalue = 3.0"] ;
995 -> 996 ;
997 [label="mse = 0.0\nsamples = 1\nvalue = 4.0"] ;
995 -> 997 ;
998 [label="hour <= 8.5\nmse = 0.1\nsamples = 6\nvalue = 2.1"] ;
954 -> 998 ;
999 [label="day <= 18.5\nmse = 0.2\nsamples = 2\nvalue = 2.5"] ;
998 -> 999 ;
1000 [label="mse = 0.0\nsamples = 1\nvalue = 2.0"] ;
999 -> 1000 ;
1001 [label="mse = 0.0\nsamples = 1\nvalue = 3.0"] ;
999 -> 1001 ;
1002 [label="mse = 0.0\nsamples = 4\nvalue = 2.0"] ;
998 -> 1002 ;
1003 [label="year <= 2015.5\nmse = 0.6\nsamples = 91\nvalue = 3.1"] ;
953 -> 1003 ;
1004 [label="year <= 2013.5\nmse = 0.6\nsamples = 72\nvalue = 3.0"] ;
1003 -> 1004 ;
1005 [label="day <= 26.5\nmse = 1.1\nsamples = 16\nvalue = 3.3"] ;
1004 -> 1005 ;
1006 [label="day <= 5.5\nmse = 0.4\nsamples = 14\nvalue = 3.1"] ;
1005 -> 1006 ;
1007 [label="mse = 0.0\nsamples = 1\nvalue = 2.0"] ;
1006 -> 1007 ;
1008 [label="day <= 25.5\nmse = 0.3\nsamples = 13\nvalue = 3.2"] ;
1006 -> 1008 ;
1009 [label="hour <= 17.0\nmse = 0.3\nsamples = 12\nvalue = 3.2"] ;
1008 -> 1009 ;
1010 [label="hour <= 14.5\nmse = 0.2\nsamples = 6\nvalue = 3.5"] ;
1009 -> 1010 ;
1011 [label="mse = 0.0\nsamples = 3\nvalue = 3.0"] ;
1010 -> 1011 ;
1012 [label="mse = 0.0\nsamples = 3\nvalue = 4.0"] ;
1010 -> 1012 ;
1013 [label="hour <= 22.5\nmse = 0.2\nsamples = 6\nvalue = 3.0"] ;
1009 -> 1013 ;
1014 [label="hour <= 21.0\nmse = 0.1\nsamples = 5\nvalue = 2.9"] ;
1013 -> 1014 ;
1015 [label="mse = 0.0\nsamples = 4\nvalue = 3.0"] ;
1014 -> 1015 ;
1016 [label="mse = 0.0\nsamples = 1\nvalue = 2.0"] ;
1014 -> 1016 ;
1017 [label="mse = 0.0\nsamples = 1\nvalue = 4.0"] ;
1013 -> 1017 ;
1018 [label="mse = 0.0\nsamples = 1\nvalue = 2.0"] ;
1008 -> 1018 ;
1019 [label="Duration <= 29.5\nmse = 3.0\nsamples = 2\nvalue = 5.0"] ;
1005 -> 1019 ;
1020 [label="mse = 0.0\nsamples = 1\nvalue = 2.0"] ;
1019 -> 1020 ;
1021 [label="mse = 0.0\nsamples = 1\nvalue = 6.0"] ;
1019 -> 1021 ;
1022 [label="hour <= 21.5\nmse = 0.3\nsamples = 56\nvalue = 2.9"] ;
1004 -> 1022 ;
1023 [label="month <= 10.5\nmse = 0.2\nsamples = 50\nvalue = 2.8"] ;
1022 -> 1023 ;
1024 [label="day <= 23.0\nmse = 0.2\nsamples = 26\nvalue = 2.7"] ;
1023 -> 1024 ;
1025 [label="Duration <= 31.0\nmse = 0.2\nsamples = 20\nvalue = 2.8"] ;
1024 -> 1025 ;
1026 [label="hour <= 13.5\nmse = 0.1\nsamples = 16\nvalue = 2.9"] ;
1025 -> 1026 ;
1027 [label="Duration <= 27.5\nmse = 0.2\nsamples = 3\nvalue = 2.6"] ;
1026 -> 1027 ;
1028 [label="Duration <= 26.0\nmse = 0.2\nsamples = 2\nvalue = 2.3"] ;
1027 -> 1028 ;
1029 [label="mse = 0.0\nsamples = 1\nvalue = 3.0"] ;
1028 -> 1029 ;
1030 [label="mse = 0.0\nsamples = 1\nvalue = 2.0"] ;
1028 -> 1030 ;
1031 [label="mse = 0.0\nsamples = 1\nvalue = 3.0"] ;
1027 -> 1031 ;
1032 [label="Duration <= 28.5\nmse = 0.0\nsamples = 13\nvalue = 2.9"] ;
1026 -> 1032 ;
1033 [label="mse = 0.0\nsamples = 10\nvalue = 3.0"] ;
1032 -> 1033 ;
1034 [label="Duration <= 29.5\nmse = 0.2\nsamples = 3\nvalue = 2.8"] ;
1032 -> 1034 ;
1035 [label="mse = 0.0\nsamples = 1\nvalue = 2.0"] ;
1034 -> 1035 ;
1036 [label="mse = 0.0\nsamples = 2\nvalue = 3.0"] ;
1034 -> 1036 ;
1037 [label="month <= 9.5\nmse = 0.2\nsamples = 4\nvalue = 2.5"] ;
1025 -> 1037 ;
1038 [label="mse = 0.0\nsamples = 1\nvalue = 2.0"] ;
1037 -> 1038 ;
1039 [label="mse = 0.0\nsamples = 3\nvalue = 3.0"] ;
1037 -> 1039 ;
1040 [label="Duration <= 32.0\nmse = 0.2\nsamples = 6\nvalue = 2.4"] ;
1024 -> 1040 ;
1041 [label="mse = 0.0\nsamples = 3\nvalue = 2.0"] ;
1040 -> 1041 ;
1042 [label="mse = 0.0\nsamples = 3\nvalue = 3.0"] ;
1040 -> 1042 ;
1043 [label="hour <= 18.5\nmse = 0.1\nsamples = 24\nvalue = 2.9"] ;
1023 -> 1043 ;
1044 [label="month <= 11.5\nmse = 0.1\nsamples = 17\nvalue = 3.0"] ;
1043 -> 1044 ;
1045 [label="day <= 9.0\nmse = 0.1\nsamples = 5\nvalue = 3.1"] ;
1044 -> 1045 ;
1046 [label="mse = 0.0\nsamples = 1\nvalue = 4.0"] ;
1045 -> 1046 ;
1047 [label="mse = 0.0\nsamples = 4\nvalue = 3.0"] ;
1045 -> 1047 ;
1048 [label="day <= 12.0\nmse = 0.0\nsamples = 12\nvalue = 3.0"] ;
1044 -> 1048 ;
1049 [label="mse = 0.0\nsamples = 1\nvalue = 2.0"] ;
1048 -> 1049 ;
1050 [label="mse = 0.0\nsamples = 11\nvalue = 3.0"] ;
1048 -> 1050 ;
1051 [label="month <= 11.5\nmse = 0.2\nsamples = 7\nvalue = 2.6"] ;
1043 -> 1051 ;
1052 [label="mse = 0.0\nsamples = 3\nvalue = 2.0"] ;
1051 -> 1052 ;
1053 [label="mse = 0.0\nsamples = 4\nvalue = 3.0"] ;
1051 -> 1053 ;
1054 [label="hour <= 22.5\nmse = 0.9\nsamples = 6\nvalue = 3.8"] ;
1022 -> 1054 ;
1055 [label="day <= 23.5\nmse = 2.2\nsamples = 2\nvalue = 4.5"] ;
1054 -> 1055 ;
1056 [label="mse = 0.0\nsamples = 1\nvalue = 3.0"] ;
1055 -> 1056 ;
1057 [label="mse = 0.0\nsamples = 1\nvalue = 6.0"] ;
1055 -> 1057 ;
1058 [label="Duration <= 31.0\nmse = 0.2\nsamples = 4\nvalue = 3.5"] ;
1054 -> 1058 ;
1059 [label="mse = 0.0\nsamples = 1\nvalue = 3.0"] ;
1058 -> 1059 ;
1060 [label="Duration <= 33.5\nmse = 0.2\nsamples = 3\nvalue = 3.8"] ;
1058 -> 1060 ;
1061 [label="mse = 0.0\nsamples = 2\nvalue = 4.0"] ;
1060 -> 1061 ;
1062 [label="mse = 0.0\nsamples = 1\nvalue = 3.0"] ;
1060 -> 1062 ;
1063 [label="hour <= 13.5\nmse = 0.8\nsamples = 19\nvalue = 3.4"] ;
1003 -> 1063 ;
1064 [label="month <= 10.0\nmse = 2.2\nsamples = 3\nvalue = 4.5"] ;
1063 -> 1064 ;
1065 [label="mse = 0.0\nsamples = 1\nvalue = 6.0"] ;
1064 -> 1065 ;
1066 [label="mse = 0.0\nsamples = 2\nvalue = 3.0"] ;
1064 -> 1066 ;
1067 [label="hour <= 22.5\nmse = 0.4\nsamples = 16\nvalue = 3.3"] ;
1063 -> 1067 ;
1068 [label="hour <= 15.5\nmse = 0.2\nsamples = 15\nvalue = 3.4"] ;
1067 -> 1068 ;
1069 [label="month <= 10.5\nmse = 0.1\nsamples = 9\nvalue = 3.1"] ;
1068 -> 1069 ;
1070 [label="mse = 0.0\nsamples = 6\nvalue = 3.0"] ;
1069 -> 1070 ;
1071 [label="day <= 5.0\nmse = 0.2\nsamples = 3\nvalue = 3.2"] ;
1069 -> 1071 ;
1072 [label="mse = 0.0\nsamples = 2\nvalue = 3.0"] ;
1071 -> 1072 ;
1073 [label="mse = 0.0\nsamples = 1\nvalue = 4.0"] ;
1071 -> 1073 ;
1074 [label="month <= 11.5\nmse = 0.1\nsamples = 6\nvalue = 3.9"] ;
1068 -> 1074 ;
1075 [label="mse = 0.0\nsamples = 5\nvalue = 4.0"] ;
1074 -> 1075 ;
1076 [label="mse = 0.0\nsamples = 1\nvalue = 3.0"] ;
1074 -> 1076 ;
1077 [label="mse = 0.0\nsamples = 1\nvalue = 2.0"] ;
1067 -> 1077 ;
1078 [label="year <= 2013.5\nmse = 1.7\nsamples = 6\nvalue = 3.8"] ;
952 -> 1078 ;
1079 [label="mse = 0.0\nsamples = 1\nvalue = 6.0"] ;
1078 -> 1079 ;
1080 [label="mse = 0.0\nsamples = 5\nvalue = 3.0"] ;
1078 -> 1080 ;
1081 [label="month <= 8.5\nmse = 1.1\nsamples = 55\nvalue = 3.8"] ;
925 -> 1081 ;
1082 [label="day <= 19.5\nmse = 1.2\nsamples = 10\nvalue = 4.7"] ;
1081 -> 1082 ;
1083 [label="Duration <= 32.5\nmse = 1.0\nsamples = 5\nvalue = 5.4"] ;
1082 -> 1083 ;
1084 [label="year <= 2017.5\nmse = 0.2\nsamples = 2\nvalue = 6.2"] ;
1083 -> 1084 ;
1085 [label="mse = 0.0\nsamples = 1\nvalue = 7.0"] ;
1084 -> 1085 ;
1086 [label="mse = 0.0\nsamples = 1\nvalue = 6.0"] ;
1084 -> 1086 ;
1087 [label="hour <= 11.0\nmse = 0.6\nsamples = 3\nvalue = 4.7"] ;
1083 -> 1087 ;
1088 [label="mse = 0.0\nsamples = 2\nvalue = 5.0"] ;
1087 -> 1088 ;
1089 [label="mse = 0.0\nsamples = 1\nvalue = 3.0"] ;
1087 -> 1089 ;
1090 [label="hour <= 11.5\nmse = 0.4\nsamples = 5\nvalue = 3.9"] ;
1082 -> 1090 ;
1091 [label="mse = 0.0\nsamples = 2\nvalue = 3.0"] ;
1090 -> 1091 ;
1092 [label="day <= 25.5\nmse = 0.1\nsamples = 3\nvalue = 4.2"] ;
1090 -> 1092 ;
1093 [label="mse = 0.0\nsamples = 2\nvalue = 4.0"] ;
1092 -> 1093 ;
1094 [label="mse = 0.0\nsamples = 1\nvalue = 5.0"] ;
1092 -> 1094 ;
1095 [label="hour <= 10.5\nmse = 0.8\nsamples = 45\nvalue = 3.5"] ;
1081 -> 1095 ;
1096 [label="day <= 28.5\nmse = 0.7\nsamples = 7\nvalue = 4.3"] ;
1095 -> 1096 ;
1097 [label="Duration <= 31.0\nmse = 0.4\nsamples = 6\nvalue = 4.1"] ;
1096 -> 1097 ;
1098 [label="month <= 11.0\nmse = 0.1\nsamples = 4\nvalue = 3.8"] ;
1097 -> 1098 ;
1099 [label="mse = 0.0\nsamples = 3\nvalue = 4.0"] ;
1098 -> 1099 ;
1100 [label="mse = 0.0\nsamples = 1\nvalue = 3.0"] ;
1098 -> 1100 ;
1101 [label="mse = 0.0\nsamples = 2\nvalue = 5.0"] ;
1097 -> 1101 ;
1102 [label="mse = 0.0\nsamples = 1\nvalue = 6.0"] ;
1096 -> 1102 ;
1103 [label="hour <= 14.5\nmse = 0.7\nsamples = 38\nvalue = 3.4"] ;
1095 -> 1103 ;
1104 [label="month <= 11.5\nmse = 0.1\nsamples = 11\nvalue = 3.0"] ;
1103 -> 1104 ;
1105 [label="Duration <= 31.5\nmse = 0.1\nsamples = 9\nvalue = 3.1"] ;
1104 -> 1105 ;
1106 [label="mse = 0.0\nsamples = 6\nvalue = 3.0"] ;
1105 -> 1106 ;
1107 [label="hour <= 13.0\nmse = 0.2\nsamples = 3\nvalue = 3.3"] ;
1105 -> 1107 ;
1108 [label="mse = 0.0\nsamples = 1\nvalue = 4.0"] ;
1107 -> 1108 ;
1109 [label="mse = 0.0\nsamples = 2\nvalue = 3.0"] ;
1107 -> 1109 ;
1110 [label="day <= 14.5\nmse = 0.2\nsamples = 2\nvalue = 2.5"] ;
1104 -> 1110 ;
1111 [label="mse = 0.0\nsamples = 1\nvalue = 3.0"] ;
1110 -> 1111 ;
1112 [label="mse = 0.0\nsamples = 1\nvalue = 2.0"] ;
1110 -> 1112 ;
1113 [label="day <= 11.0\nmse = 0.8\nsamples = 27\nvalue = 3.6"] ;
1103 -> 1113 ;
1114 [label="year <= 2017.5\nmse = 1.4\nsamples = 11\nvalue = 4.1"] ;
1113 -> 1114 ;
1115 [label="Duration <= 26.0\nmse = 0.9\nsamples = 6\nvalue = 4.9"] ;
1114 -> 1115 ;
1116 [label="mse = 0.0\nsamples = 1\nvalue = 3.0"] ;
1115 -> 1116 ;
1117 [label="Duration <= 28.5\nmse = 0.4\nsamples = 5\nvalue = 5.1"] ;
1115 -> 1117 ;
1118 [label="mse = 0.0\nsamples = 1\nvalue = 6.0"] ;
1117 -> 1118 ;
1119 [label="Duration <= 31.5\nmse = 0.2\nsamples = 4\nvalue = 4.8"] ;
1117 -> 1119 ;
1120 [label="mse = 0.0\nsamples = 2\nvalue = 5.0"] ;
1119 -> 1120 ;
1121 [label="day <= 8.5\nmse = 0.2\nsamples = 2\nvalue = 4.5"] ;
1119 -> 1121 ;
1122 [label="mse = 0.0\nsamples = 1\nvalue = 5.0"] ;
1121 -> 1122 ;
1123 [label="mse = 0.0\nsamples = 1\nvalue = 4.0"] ;
1121 -> 1123 ;
1124 [label="day <= 3.5\nmse = 0.5\nsamples = 5\nvalue = 3.2"] ;
1114 -> 1124 ;
1125 [label="day <= 2.5\nmse = 0.2\nsamples = 4\nvalue = 3.4"] ;
1124 -> 1125 ;
1126 [label="hour <= 21.5\nmse = 0.2\nsamples = 3\nvalue = 3.7"] ;
1125 -> 1126 ;
1127 [label="mse = 0.0\nsamples = 2\nvalue = 4.0"] ;
1126 -> 1127 ;
1128 [label="mse = 0.0\nsamples = 1\nvalue = 3.0"] ;
1126 -> 1128 ;
1129 [label="mse = 0.0\nsamples = 1\nvalue = 3.0"] ;
1125 -> 1129 ;
1130 [label="mse = 0.0\nsamples = 1\nvalue = 2.0"] ;
1124 -> 1130 ;
1131 [label="Duration <= 25.5\nmse = 0.2\nsamples = 16\nvalue = 3.3"] ;
1113 -> 1131 ;
1132 [label="mse = 0.0\nsamples = 1\nvalue = 4.0"] ;
1131 -> 1132 ;
1133 [label="Duration <= 32.5\nmse = 0.2\nsamples = 15\nvalue = 3.3"] ;
1131 -> 1133 ;
1134 [label="month <= 11.5\nmse = 0.2\nsamples = 13\nvalue = 3.2"] ;
1133 -> 1134 ;
1135 [label="day <= 29.0\nmse = 0.1\nsamples = 11\nvalue = 3.1"] ;
1134 -> 1135 ;
1136 [label="day <= 25.5\nmse = 0.1\nsamples = 10\nvalue = 3.1"] ;
1135 -> 1136 ;
1137 [label="mse = 0.0\nsamples = 8\nvalue = 3.0"] ;
1136 -> 1137 ;
1138 [label="hour <= 22.0\nmse = 0.2\nsamples = 2\nvalue = 3.3"] ;
1136 -> 1138 ;
1139 [label="mse = 0.0\nsamples = 1\nvalue = 4.0"] ;
1138 -> 1139 ;
1140 [label="mse = 0.0\nsamples = 1\nvalue = 3.0"] ;
1138 -> 1140 ;
1141 [label="mse = 0.0\nsamples = 1\nvalue = 4.0"] ;
1135 -> 1141 ;
1142 [label="hour <= 17.5\nmse = 0.2\nsamples = 2\nvalue = 3.7"] ;
1134 -> 1142 ;
1143 [label="mse = 0.0\nsamples = 1\nvalue = 4.0"] ;
1142 -> 1143 ;
1144 [label="mse = 0.0\nsamples = 1\nvalue = 3.0"] ;
1142 -> 1144 ;
1145 [label="mse = 0.0\nsamples = 2\nvalue = 4.0"] ;
1133 -> 1145 ;
1146 [label="Duration <= 45.5\nmse = 1.7\nsamples = 2741\nvalue = 4.0"] ;
0 -> 1146 [labeldistance=2.5, labelangle=-45, headlabel="False"] ;
1147 [label="75sy <= 0.5\nmse = 1.5\nsamples = 2034\nvalue = 3.8"] ;
1146 -> 1147 ;
1148 [label="year <= 2011.5\nmse = 1.7\nsamples = 1685\nvalue = 3.9"] ;
1147 -> 1148 ;
1149 [label="day <= 7.5\nmse = 0.9\nsamples = 39\nvalue = 2.4"] ;
1148 -> 1149 ;
1150 [label="hour <= 15.5\nmse = 0.5\nsamples = 6\nvalue = 1.5"] ;
1149 -> 1150 ;
1151 [label="Duration <= 42.5\nmse = 0.2\nsamples = 3\nvalue = 2.3"] ;
1150 -> 1151 ;
1152 [label="mse = 0.0\nsamples = 2\nvalue = 2.0"] ;
1151 -> 1152 ;
1153 [label="mse = 0.0\nsamples = 1\nvalue = 3.0"] ;
1151 -> 1153 ;
1154 [label="Duration <= 40.5\nmse = 0.1\nsamples = 3\nvalue = 1.1"] ;
1150 -> 1154 ;
1155 [label="mse = 0.0\nsamples = 1\nvalue = 2.0"] ;
1154 -> 1155 ;
1156 [label="mse = 0.0\nsamples = 2\nvalue = 1.0"] ;
1154 -> 1156 ;
1157 [label="hour <= 12.5\nmse = 0.8\nsamples = 33\nvalue = 2.6"] ;
1149 -> 1157 ;
1158 [label="day <= 12.5\nmse = 0.8\nsamples = 19\nvalue = 2.4"] ;
1157 -> 1158 ;
1159 [label="hour <= 10.5\nmse = 1.0\nsamples = 5\nvalue = 2.9"] ;
1158 -> 1159 ;
1160 [label="mse = 0.0\nsamples = 3\nvalue = 4.0"] ;
1159 -> 1160 ;
1161 [label="mse = 0.0\nsamples = 2\nvalue = 2.0"] ;
1159 -> 1161 ;
1162 [label="month <= 6.5\nmse = 0.6\nsamples = 14\nvalue = 2.1"] ;
1158 -> 1162 ;
1163 [label="mse = 0.0\nsamples = 2\nvalue = 1.0"] ;
1162 -> 1163 ;
1164 [label="day <= 18.5\nmse = 0.5\nsamples = 12\nvalue = 2.3"] ;
1162 -> 1164 ;
1165 [label="Duration <= 42.5\nmse = 0.1\nsamples = 3\nvalue = 1.9"] ;
1164 -> 1165 ;
1166 [label="mse = 0.0\nsamples = 2\nvalue = 2.0"] ;
1165 -> 1166 ;
1167 [label="mse = 0.0\nsamples = 1\nvalue = 1.0"] ;
1165 -> 1167 ;
1168 [label="day <= 20.0\nmse = 0.6\nsamples = 9\nvalue = 2.5"] ;
1164 -> 1168 ;
1169 [label="mse = 0.0\nsamples = 1\nvalue = 4.0"] ;
1168 -> 1169 ;
1170 [label="Duration <= 43.0\nmse = 0.4\nsamples = 8\nvalue = 2.4"] ;
1168 -> 1170 ;
1171 [label="day <= 28.0\nmse = 0.4\nsamples = 6\nvalue = 2.2"] ;
1170 -> 1171 ;
1172 [label="Duration <= 41.5\nmse = 0.4\nsamples = 5\nvalue = 2.1"] ;
1171 -> 1172 ;
1173 [label="month <= 7.5\nmse = 0.2\nsamples = 4\nvalue = 2.3"] ;
1172 -> 1173 ;
1174 [label="mse = 0.0\nsamples = 1\nvalue = 3.0"] ;
1173 -> 1174 ;
1175 [label="month <= 11.5\nmse = 0.1\nsamples = 3\nvalue = 2.2"] ;
1173 -> 1175 ;
1176 [label="mse = 0.0\nsamples = 2\nvalue = 2.0"] ;
1175 -> 1176 ;
1177 [label="mse = 0.0\nsamples = 1\nvalue = 3.0"] ;
1175 -> 1177 ;
1178 [label="mse = 0.0\nsamples = 1\nvalue = 1.0"] ;
1172 -> 1178 ;
1179 [label="mse = 0.0\nsamples = 1\nvalue = 3.0"] ;
1171 -> 1179 ;
1180 [label="mse = 0.0\nsamples = 2\nvalue = 3.0"] ;
1170 -> 1180 ;
1181 [label="day <= 26.5\nmse = 0.5\nsamples = 14\nvalue = 2.9"] ;
1157 -> 1181 ;
1182 [label="hour <= 22.5\nmse = 0.3\nsamples = 13\nvalue = 2.8"] ;
1181 -> 1182 ;
1183 [label="Duration <= 36.5\nmse = 0.3\nsamples = 11\nvalue = 2.9"] ;
1182 -> 1183 ;
1184 [label="month <= 9.0\nmse = 0.2\nsamples = 3\nvalue = 2.3"] ;
1183 -> 1184 ;
1185 [label="mse = 0.0\nsamples = 1\nvalue = 3.0"] ;
1184 -> 1185 ;
1186 [label="mse = 0.0\nsamples = 2\nvalue = 2.0"] ;
1184 -> 1186 ;
1187 [label="day <= 11.5\nmse = 0.1\nsamples = 8\nvalue = 3.1"] ;
1183 -> 1187 ;
1188 [label="mse = 0.0\nsamples = 1\nvalue = 4.0"] ;
1187 -> 1188 ;
1189 [label="mse = 0.0\nsamples = 7\nvalue = 3.0"] ;
1187 -> 1189 ;
1190 [label="mse = 0.0\nsamples = 2\nvalue = 2.0"] ;
1182 -> 1190 ;
1191 [label="mse = 0.0\nsamples = 1\nvalue = 4.0"] ;
1181 -> 1191 ;
1192 [label="38sy <= 0.5\nmse = 1.6\nsamples = 1646\nvalue = 3.9"] ;
1148 -> 1192 ;
1193 [label="33sy <= 0.5\nmse = 1.6\nsamples = 1642\nvalue = 3.9"] ;
1192 -> 1193 ;
1194 [label="89sy <= 0.5\nmse = 1.5\nsamples = 1603\nvalue = 3.9"] ;
1193 -> 1194 ;
1195 [label="hour <= 7.5\nmse = 1.4\nsamples = 1548\nvalue = 3.8"] ;
1194 -> 1195 ;
1196 [label="year <= 2013.5\nmse = 1.6\nsamples = 332\nvalue = 4.2"] ;
1195 -> 1196 ;
1197 [label="month <= 2.5\nmse = 1.7\nsamples = 81\nvalue = 4.7"] ;
1196 -> 1197 ;
1198 [label="day <= 26.0\nmse = 0.6\nsamples = 9\nvalue = 6.1"] ;
1197 -> 1198 ;
1199 [label="day <= 15.5\nmse = 0.4\nsamples = 8\nvalue = 5.8"] ;
1198 -> 1199 ;
1200 [label="Duration <= 40.0\nmse = 0.2\nsamples = 3\nvalue = 6.2"] ;
1199 -> 1200 ;
1201 [label="mse = 0.0\nsamples = 1\nvalue = 7.0"] ;
1200 -> 1201 ;
1202 [label="mse = 0.0\nsamples = 2\nvalue = 6.0"] ;
1200 -> 1202 ;
1203 [label="hour <= 1.5\nmse = 0.2\nsamples = 5\nvalue = 5.4"] ;
1199 -> 1203 ;
1204 [label="mse = 0.0\nsamples = 2\nvalue = 5.0"] ;
1203 -> 1204 ;
1205 [label="hour <= 2.5\nmse = 0.2\nsamples = 3\nvalue = 5.7"] ;
1203 -> 1205 ;
1206 [label="mse = 0.0\nsamples = 2\nvalue = 6.0"] ;
1205 -> 1206 ;
1207 [label="mse = 0.0\nsamples = 1\nvalue = 5.0"] ;
1205 -> 1207 ;
1208 [label="mse = 0.0\nsamples = 1\nvalue = 7.0"] ;
1198 -> 1208 ;
1209 [label="year <= 2012.5\nmse = 1.6\nsamples = 72\nvalue = 4.6"] ;
1197 -> 1209 ;
1210 [label="day <= 7.5\nmse = 1.5\nsamples = 34\nvalue = 5.0"] ;
1209 -> 1210 ;
1211 [label="mse = 0.0\nsamples = 2\nvalue = 3.0"] ;
1210 -> 1211 ;
1212 [label="month <= 9.5\nmse = 1.3\nsamples = 32\nvalue = 5.2"] ;
1210 -> 1212 ;
1213 [label="day <= 24.5\nmse = 1.0\nsamples = 18\nvalue = 4.6"] ;
1212 -> 1213 ;
1214 [label="day <= 18.5\nmse = 0.7\nsamples = 13\nvalue = 4.9"] ;
1213 -> 1214 ;
1215 [label="Duration <= 37.5\nmse = 0.5\nsamples = 10\nvalue = 4.7"] ;
1214 -> 1215 ;
1216 [label="day <= 11.0\nmse = 0.2\nsamples = 3\nvalue = 5.3"] ;
1215 -> 1216 ;
1217 [label="mse = 0.0\nsamples = 2\nvalue = 5.0"] ;
1216 -> 1217 ;
1218 [label="mse = 0.0\nsamples = 1\nvalue = 6.0"] ;
1216 -> 1218 ;
1219 [label="Duration <= 40.5\nmse = 0.4\nsamples = 7\nvalue = 4.6"] ;
1215 -> 1219 ;
1220 [label="hour <= 3.0\nmse = 0.5\nsamples = 5\nvalue = 4.4"] ;
1219 -> 1220 ;
1221 [label="day <= 13.0\nmse = 0.2\nsamples = 3\nvalue = 3.7"] ;
1220 -> 1221 ;
1222 [label="mse = 0.0\nsamples = 2\nvalue = 4.0"] ;
1221 -> 1222 ;
1223 [label="mse = 0.0\nsamples = 1\nvalue = 3.0"] ;
1221 -> 1223 ;
1224 [label="day <= 13.5\nmse = 0.2\nsamples = 2\nvalue = 4.8"] ;
1220 -> 1224 ;
1225 [label="mse = 0.0\nsamples = 1\nvalue = 4.0"] ;
1224 -> 1225 ;
1226 [label="mse = 0.0\nsamples = 1\nvalue = 5.0"] ;
1224 -> 1226 ;
1227 [label="mse = 0.0\nsamples = 2\nvalue = 5.0"] ;
1219 -> 1227 ;
1228 [label="hour <= 5.0\nmse = 0.7\nsamples = 3\nvalue = 6.0"] ;
1214 -> 1228 ;
1229 [label="mse = 0.0\nsamples = 1\nvalue = 7.0"] ;
1228 -> 1229 ;
1230 [label="Duration <= 35.5\nmse = 0.2\nsamples = 2\nvalue = 5.5"] ;
1228 -> 1230 ;
1231 [label="mse = 0.0\nsamples = 1\nvalue = 5.0"] ;
1230 -> 1231 ;
1232 [label="mse = 0.0\nsamples = 1\nvalue = 6.0"] ;
1230 -> 1232 ;
1233 [label="hour <= 2.5\nmse = 0.7\nsamples = 5\nvalue = 3.8"] ;
1213 -> 1233 ;
1234 [label="mse = 0.0\nsamples = 1\nvalue = 5.0"] ;
1233 -> 1234 ;
1235 [label="day <= 26.0\nmse = 0.2\nsamples = 4\nvalue = 3.3"] ;
1233 -> 1235 ;
1236 [label="mse = 0.0\nsamples = 2\nvalue = 3.0"] ;
1235 -> 1236 ;
1237 [label="day <= 28.0\nmse = 0.2\nsamples = 2\nvalue = 3.7"] ;
1235 -> 1237 ;
1238 [label="mse = 0.0\nsamples = 1\nvalue = 4.0"] ;
1237 -> 1238 ;
1239 [label="mse = 0.0\nsamples = 1\nvalue = 3.0"] ;
1237 -> 1239 ;
1240 [label="day <= 11.5\nmse = 0.7\nsamples = 14\nvalue = 5.9"] ;
1212 -> 1240 ;
1241 [label="day <= 8.5\nmse = 0.5\nsamples = 5\nvalue = 5.2"] ;
1240 -> 1241 ;
1242 [label="mse = 0.0\nsamples = 1\nvalue = 6.0"] ;
1241 -> 1242 ;
1243 [label="Duration <= 37.5\nmse = 0.2\nsamples = 4\nvalue = 4.8"] ;
1241 -> 1243 ;
1244 [label="mse = 0.0\nsamples = 1\nvalue = 4.0"] ;
1243 -> 1244 ;
1245 [label="mse = 0.0\nsamples = 3\nvalue = 5.0"] ;
1243 -> 1245 ;
1246 [label="day <= 23.5\nmse = 0.5\nsamples = 9\nvalue = 6.1"] ;
1240 -> 1246 ;
1247 [label="month <= 11.5\nmse = 0.2\nsamples = 6\nvalue = 6.5"] ;
1246 -> 1247 ;
1248 [label="Duration <= 39.5\nmse = 0.2\nsamples = 4\nvalue = 6.7"] ;
1247 -> 1248 ;
1249 [label="day <= 18.5\nmse = 0.2\nsamples = 3\nvalue = 6.5"] ;
1248 -> 1249 ;
1250 [label="mse = 0.0\nsamples = 1\nvalue = 6.0"] ;
1249 -> 1250 ;
1251 [label="mse = 0.0\nsamples = 2\nvalue = 7.0"] ;
1249 -> 1251 ;
1252 [label="mse = 0.0\nsamples = 1\nvalue = 7.0"] ;
1248 -> 1252 ;
1253 [label="mse = 0.0\nsamples = 2\nvalue = 6.0"] ;
1247 -> 1253 ;
1254 [label="Duration <= 43.5\nmse = 0.2\nsamples = 3\nvalue = 5.2"] ;
1246 -> 1254 ;
1255 [label="mse = 0.0\nsamples = 2\nvalue = 5.0"] ;
1254 -> 1255 ;
1256 [label="mse = 0.0\nsamples = 1\nvalue = 6.0"] ;
1254 -> 1256 ;
1257 [label="day <= 5.0\nmse = 1.4\nsamples = 38\nvalue = 4.2"] ;
1209 -> 1257 ;
1258 [label="hour <= 4.5\nmse = 0.8\nsamples = 7\nvalue = 5.5"] ;
1257 -> 1258 ;
1259 [label="mse = 0.0\nsamples = 5\nvalue = 5.0"] ;
1258 -> 1259 ;
1260 [label="mse = 0.0\nsamples = 2\nvalue = 7.0"] ;
1258 -> 1260 ;
1261 [label="month <= 3.5\nmse = 1.2\nsamples = 31\nvalue = 4.0"] ;
1257 -> 1261 ;
1262 [label="Duration <= 41.5\nmse = 1.9\nsamples = 4\nvalue = 5.7"] ;
1261 -> 1262 ;
1263 [label="hour <= 4.0\nmse = 0.2\nsamples = 2\nvalue = 6.5"] ;
1262 -> 1263 ;
1264 [label="mse = 0.0\nsamples = 1\nvalue = 7.0"] ;
1263 -> 1264 ;
1265 [label="mse = 0.0\nsamples = 1\nvalue = 6.0"] ;
1263 -> 1265 ;
1266 [label="day <= 19.0\nmse = 1.0\nsamples = 2\nvalue = 4.0"] ;
1262 -> 1266 ;
1267 [label="mse = 0.0\nsamples = 1\nvalue = 5.0"] ;
1266 -> 1267 ;
1268 [label="mse = 0.0\nsamples = 1\nvalue = 3.0"] ;
1266 -> 1268 ;
1269 [label="hour <= 0.5\nmse = 0.8\nsamples = 27\nvalue = 3.8"] ;
1261 -> 1269 ;
1270 [label="mse = 0.0\nsamples = 5\nvalue = 3.0"] ;
1269 -> 1270 ;
1271 [label="day <= 20.5\nmse = 0.8\nsamples = 22\nvalue = 3.9"] ;
1269 -> 1271 ;
1272 [label="month <= 4.5\nmse = 0.8\nsamples = 12\nvalue = 4.2"] ;
1271 -> 1272 ;
1273 [label="Duration <= 43.5\nmse = 0.2\nsamples = 2\nvalue = 3.5"] ;
1272 -> 1273 ;
1274 [label="mse = 0.0\nsamples = 1\nvalue = 3.0"] ;
1273 -> 1274 ;
1275 [label="mse = 0.0\nsamples = 1\nvalue = 4.0"] ;
1273 -> 1275 ;
1276 [label="day <= 8.5\nmse = 0.7\nsamples = 10\nvalue = 4.5"] ;
1272 -> 1276 ;
1277 [label="hour <= 1.5\nmse = 0.2\nsamples = 3\nvalue = 3.8"] ;
1276 -> 1277 ;
1278 [label="mse = 0.0\nsamples = 1\nvalue = 3.0"] ;
1277 -> 1278 ;
1279 [label="mse = 0.0\nsamples = 2\nvalue = 4.0"] ;
1277 -> 1279 ;
1280 [label="month <= 10.5\nmse = 0.7\nsamples = 7\nvalue = 4.7"] ;
1276 -> 1280 ;
1281 [label="Duration <= 41.5\nmse = 0.2\nsamples = 4\nvalue = 5.3"] ;
1280 -> 1281 ;
1282 [label="day <= 17.5\nmse = 0.2\nsamples = 3\nvalue = 5.2"] ;
1281 -> 1282 ;
1283 [label="mse = 0.0\nsamples = 2\nvalue = 5.0"] ;
1282 -> 1283 ;
1284 [label="mse = 0.0\nsamples = 1\nvalue = 6.0"] ;
1282 -> 1284 ;
1285 [label="mse = 0.0\nsamples = 1\nvalue = 6.0"] ;
1281 -> 1285 ;
1286 [label="Duration <= 42.0\nmse = 0.4\nsamples = 3\nvalue = 4.1"] ;
1280 -> 1286 ;
1287 [label="hour <= 2.0\nmse = 0.2\nsamples = 2\nvalue = 3.8"] ;
1286 -> 1287 ;
1288 [label="mse = 0.0\nsamples = 1\nvalue = 3.0"] ;
1287 -> 1288 ;
1289 [label="mse = 0.0\nsamples = 1\nvalue = 4.0"] ;
1287 -> 1289 ;
1290 [label="mse = 0.0\nsamples = 1\nvalue = 5.0"] ;
1286 -> 1290 ;
1291 [label="day <= 28.5\nmse = 0.6\nsamples = 10\nvalue = 3.6"] ;
1271 -> 1291 ;
1292 [label="month <= 9.5\nmse = 0.4\nsamples = 8\nvalue = 3.4"] ;
1291 -> 1292 ;
1293 [label="hour <= 5.0\nmse = 0.1\nsamples = 5\nvalue = 3.1"] ;
1292 -> 1293 ;
1294 [label="mse = 0.0\nsamples = 3\nvalue = 3.0"] ;
1293 -> 1294 ;
1295 [label="month <= 6.0\nmse = 0.2\nsamples = 2\nvalue = 3.5"] ;
1293 -> 1295 ;
1296 [label="mse = 0.0\nsamples = 1\nvalue = 3.0"] ;
1295 -> 1296 ;
1297 [label="mse = 0.0\nsamples = 1\nvalue = 4.0"] ;
1295 -> 1297 ;
1298 [label="Duration <= 37.0\nmse = 0.6\nsamples = 3\nvalue = 3.8"] ;
1292 -> 1298 ;
1299 [label="mse = 0.0\nsamples = 1\nvalue = 3.0"] ;
1298 -> 1299 ;
1300 [label="Duration <= 40.5\nmse = 0.2\nsamples = 2\nvalue = 4.3"] ;
1298 -> 1300 ;
1301 [label="mse = 0.0\nsamples = 1\nvalue = 5.0"] ;
1300 -> 1301 ;
1302 [label="mse = 0.0\nsamples = 1\nvalue = 4.0"] ;
1300 -> 1302 ;
1303 [label="month <= 5.5\nmse = 0.2\nsamples = 2\nvalue = 4.7"] ;
1291 -> 1303 ;
1304 [label="mse = 0.0\nsamples = 1\nvalue = 4.0"] ;
1303 -> 1304 ;
1305 [label="mse = 0.0\nsamples = 1\nvalue = 5.0"] ;
1303 -> 1305 ;
1306 [label="Duration <= 39.7\nmse = 1.4\nsamples = 251\nvalue = 4.0"] ;
1196 -> 1306 ;
1307 [label="29sy <= 0.5\nmse = 1.4\nsamples = 212\nvalue = 3.9"] ;
1306 -> 1307 ;
1308 [label="month <= 6.5\nmse = 1.3\nsamples = 205\nvalue = 3.8"] ;
1307 -> 1308 ;
1309 [label="day <= 25.5\nmse = 0.7\nsamples = 96\nvalue = 3.6"] ;
1308 -> 1309 ;
1310 [label="30sy <= 0.5\nmse = 0.5\nsamples = 86\nvalue = 3.5"] ;
1309 -> 1310 ;
1311 [label="hour <= 1.5\nmse = 0.5\nsamples = 82\nvalue = 3.5"] ;
1310 -> 1311 ;
1312 [label="year <= 2014.5\nmse = 0.2\nsamples = 28\nvalue = 3.2"] ;
1311 -> 1312 ;
1313 [label="mse = 0.0\nsamples = 1\nvalue = 4.0"] ;
1312 -> 1313 ;
1314 [label="day <= 20.5\nmse = 0.1\nsamples = 27\nvalue = 3.2"] ;
1312 -> 1314 ;
1315 [label="42sy <= 0.5\nmse = 0.1\nsamples = 21\nvalue = 3.1"] ;
1314 -> 1315 ;
1316 [label="month <= 5.0\nmse = 0.0\nsamples = 16\nvalue = 3.0"] ;
1315 -> 1316 ;
1317 [label="mse = 0.0\nsamples = 13\nvalue = 3.0"] ;
1316 -> 1317 ;
1318 [label="day <= 14.5\nmse = 0.2\nsamples = 3\nvalue = 3.2"] ;
1316 -> 1318 ;
1319 [label="mse = 0.0\nsamples = 1\nvalue = 4.0"] ;
1318 -> 1319 ;
1320 [label="mse = 0.0\nsamples = 2\nvalue = 3.0"] ;
1318 -> 1320 ;
1321 [label="day <= 11.0\nmse = 0.2\nsamples = 5\nvalue = 3.4"] ;
1315 -> 1321 ;
1322 [label="mse = 0.0\nsamples = 2\nvalue = 4.0"] ;
1321 -> 1322 ;
1323 [label="mse = 0.0\nsamples = 3\nvalue = 3.0"] ;
1321 -> 1323 ;
1324 [label="month <= 4.5\nmse = 0.2\nsamples = 6\nvalue = 3.6"] ;
1314 -> 1324 ;
1325 [label="mse = 0.0\nsamples = 2\nvalue = 4.0"] ;
1324 -> 1325 ;
1326 [label="55sy <= 0.5\nmse = 0.2\nsamples = 4\nvalue = 3.4"] ;
1324 -> 1326 ;
1327 [label="mse = 0.0\nsamples = 3\nvalue = 3.0"] ;
1326 -> 1327 ;
1328 [label="mse = 0.0\nsamples = 1\nvalue = 4.0"] ;
1326 -> 1328 ;
1329 [label="day <= 1.5\nmse = 0.6\nsamples = 54\nvalue = 3.6"] ;
1311 -> 1329 ;
1330 [label="mse = 0.0\nsamples = 5\nvalue = 3.0"] ;
1329 -> 1330 ;
1331 [label="day <= 4.5\nmse = 0.7\nsamples = 49\nvalue = 3.8"] ;
1329 -> 1331 ;
1332 [label="Duration <= 39.2\nmse = 0.5\nsamples = 6\nvalue = 4.7"] ;
1331 -> 1332 ;
1333 [label="month <= 4.5\nmse = 0.4\nsamples = 4\nvalue = 5.0"] ;
1332 -> 1333 ;
1334 [label="month <= 2.5\nmse = 0.2\nsamples = 3\nvalue = 5.2"] ;
1333 -> 1334 ;
1335 [label="mse = 0.0\nsamples = 2\nvalue = 5.0"] ;
1334 -> 1335 ;
1336 [label="mse = 0.0\nsamples = 1\nvalue = 6.0"] ;
1334 -> 1336 ;
1337 [label="mse = 0.0\nsamples = 1\nvalue = 4.0"] ;
1333 -> 1337 ;
1338 [label="mse = 0.0\nsamples = 2\nvalue = 4.0"] ;
1332 -> 1338 ;
1339 [label="year <= 2015.5\nmse = 0.6\nsamples = 43\nvalue = 3.7"] ;
1331 -> 1339 ;
1340 [label="mse = 0.0\nsamples = 2\nvalue = 5.0"] ;
1339 -> 1340 ;
1341 [label="55sy <= 0.5\nmse = 0.5\nsamples = 41\nvalue = 3.6"] ;
1339 -> 1341 ;
1342 [label="month <= 1.5\nmse = 0.6\nsamples = 35\nvalue = 3.5"] ;
1341 -> 1342 ;
1343 [label="day <= 15.5\nmse = 0.4\nsamples = 10\nvalue = 3.1"] ;
1342 -> 1343 ;
1344 [label="mse = 0.0\nsamples = 2\nvalue = 2.0"] ;
1343 -> 1344 ;
1345 [label="day <= 16.5\nmse = 0.2\nsamples = 8\nvalue = 3.3"] ;
1343 -> 1345 ;
1346 [label="mse = 0.0\nsamples = 2\nvalue = 4.0"] ;
1345 -> 1346 ;
1347 [label="hour <= 3.0\nmse = 0.1\nsamples = 6\nvalue = 3.1"] ;
1345 -> 1347 ;
1348 [label="mse = 0.0\nsamples = 1\nvalue = 4.0"] ;
1347 -> 1348 ;
1349 [label="mse = 0.0\nsamples = 5\nvalue = 3.0"] ;
1347 -> 1349 ;
1350 [label="month <= 2.5\nmse = 0.6\nsamples = 25\nvalue = 3.6"] ;
1342 -> 1350 ;
1351 [label="mse = 0.0\nsamples = 1\nvalue = 6.0"] ;
1350 -> 1351 ;
1352 [label="day <= 12.5\nmse = 0.5\nsamples = 24\nvalue = 3.5"] ;
1350 -> 1352 ;
1353 [label="month <= 5.5\nmse = 0.3\nsamples = 7\nvalue = 3.8"] ;
1352 -> 1353 ;
1354 [label="hour <= 4.0\nmse = 0.2\nsamples = 6\nvalue = 4.0"] ;
1353 -> 1354 ;
1355 [label="year <= 2017.5\nmse = 0.1\nsamples = 5\nvalue = 3.9"] ;
1354 -> 1355 ;
1356 [label="mse = 0.0\nsamples = 1\nvalue = 3.0"] ;
1355 -> 1356 ;
1357 [label="mse = 0.0\nsamples = 4\nvalue = 4.0"] ;
1355 -> 1357 ;
1358 [label="mse = 0.0\nsamples = 1\nvalue = 5.0"] ;
1354 -> 1358 ;
1359 [label="mse = 0.0\nsamples = 1\nvalue = 3.0"] ;
1353 -> 1359 ;
1360 [label="42sy <= 0.5\nmse = 0.5\nsamples = 17\nvalue = 3.4"] ;
1352 -> 1360 ;
1361 [label="day <= 21.5\nmse = 0.2\nsamples = 11\nvalue = 3.2"] ;
1360 -> 1361 ;
1362 [label="hour <= 4.0\nmse = 0.2\nsamples = 5\nvalue = 3.4"] ;
1361 -> 1362 ;
